-65.176333734323,158.908955980664,0.989343194536836,-80.8480860629962,-135.638079786999,70.4667356495418,-95.9123177989426,-14.9569484632374,-106.010065912888,158.770883574228,101.67442061195,8.96064080549661,63.698174563946,-5.79922231803711,-95.1613347673003,57.4627243380387,98.8303925335088,-11.1872809733952,18.6697432292956,134.353845055849,-135.262114023748,-34.3636581861998,-119.330152229257,173.84084841013,-119.155123495175,-103.909019036076,-124.064482542887,6.90814276504051,-135.155837356403,134.690157468946,75.1864548233164,84.1731476502088,-159.649154080135,-150.144876066778,-29.6094468574274,-127.937784390884,-17.8361821863447,16.0672646675281,-31.498814067868,49.9333051793539,-174.144571163633,116.615216019808,86.221186231563,-33.2724223749738,151.080486445597,152.470544832939,-65.6330756757557,54.7376753463155,-67.8537023887124,119.783701180613,-132.062916616867,-128.229227651802,28.7971563738012,52.9491901669356,-66.0428027744655,54.831718682018,114.93412384513,127.267045857963,-143.571486437086,154.26851162375,-167.155228881381,-65.7181174339591,-139.567458664412,24.550792230279,108.81315024993,-153.723297459292,-29.0817998161479,-4.65810419973387,-113.417253324363,35.1744828608568,-155.958615399245,-133.92391395745,-147.334237961959,148.59407624388,-71.2449845988583,163.197079712732,-108.170519118992,-44.5712649710836,-140.56307157498,76.1699525834305,21.7364209158777,-116.519156272761,-167.695063192548,172.324864555449,175.678210754122,-70.1722203301941,176.523118689032,171.396400757769,129.885217695352,75.5225181297052,86.3539355929162,-106.590816643976,-138.302566481127,112.609629003624,-27.2861858726463,143.293103173676,21.7009500661803,175.599875845083,46.2193366024078,-41.878809998156,-40.9063604171079,124.869196929538,40.0993061660337,18.4930100736981,-50.9395916901863,-175.9845620216,29.3638327304469,-115.999393270108,-113.613812916417,-35.1602343140562,143.226410079436,121.102226725561,89.6406414399692,-0.98397840239752,-43.6142225917328,-116.346748859456,143.719547399781,-115.453585583743,175.486756563945,34.0979175171742,150.284529939404,-86.6869833542243,-98.7413832847165,23.540498011288,75.4700547108119,-170.402922744524,-67.7192267455241,-170.890673667322,-99.3218708558659,-136.676212373347,94.0740903434364,-110.75794956288,157.990103519732,-83.1211011577224,-126.66877657382,72.8550722777144,-176.83744954995,-17.4809929551703,142.979009017294,-105.098390065796,121.478133536475,-151.059486707886,-39.1877529947777,-91.9228744910413,-117.968913046835,-164.752720640645,12.0374093882067,-54.7475534709056,-18.2098150901606,40.2065647248004,-78.0588652377259,42.4038568975306,80.5573215831234,74.5466414214906,-148.99982315033,-44.6875133506296,-176.343021858092,104.780111024847,109.154591677966,-42.5275943537713,151.757720050626,81.3486142390435,174.437817233126,173.487068553003,-68.7221985196856,-74.5477211835853,-28.9750589762261,-54.2339536614359,83.3688744070139,-63.617736181203,-113.924719974386,27.7270383249018,62.6426301440667,21.5639596340474,-170.973286050077,68.3324442043232,-95.0157588629516,-11.396927196576,128.319170220286,-33.2338402079036,147.250616498521,118.158404330966,21.7950820790849,136.323749251198,55.237846245504,-145.075742888573,30.387197251258,45.9103939509036,158.241889591388,135.149074876063,-76.3705690942965,77.4097708274074,-54.4775806470063,134.377672488732,51.4229189479471,-8.86133714665247,58.4341747275095,-14.8914048562715,177.701020233947,156.052763469663,11.8653257527851,-15.3063845457838,-168.570333061898,-1.65461194578474,-47.9054948053486,-127.514073221574,-91.6979826793715,-26.4851468804487,-100.800696954369,81.6426490424589,-114.224937236059,-89.7250379725178,18.8693057749567,-138.597455671446,150.002460789345,-26.0508411852114,76.0604441111654,-171.639075910303,-164.039938637142,-145.636378942985,-105.658716358007,-135.580766113055,163.303041779912,72.3780064712907,52.0842530748165,-107.456153465,157.157855155755,-115.741089262174,166.566476630141,142.209536970911,76.3294179514463,23.3823337246622,82.5393214130142,80.8125794202968,-95.9022825881429,0.566206850798908,-64.9692596420453,158.818150150283,-155.493128531365,141.09456692198,53.8022955260976,-47.7112745838591,114.524666460286,131.478515504644,-108.812636305237,101.597052913481,56.4538499906015,43.7009801703846,-154.275104152085,67.0448145567575,149.361225933906,95.5313057182592,-151.155837142209,115.581638905764,7.22082131185081,112.701092228092,116.474853014865,42.8873687858174,-178.593899396702,73.601800483587,-120.241501296814,160.299830779362,179.338008273275,21.9580919105953,-44.918623062319,-96.5276313058798,39.1188415321515,11.0619359717799,52.9865338813459,2.89980643340341,-91.2626991825397,-158.649678367249,-155.042207440959,105.272031874769,49.3092525108622,-169.074584238747,95.0615514674132,-149.277939491009,-10.9934785252755,-98.9633928345171,-112.448726775893,162.157828147199,109.943108491938,139.771789701998,-76.5595217655153,-174.418267701586,111.672567075764,-41.1040540285729,109.100389313542,-121.083700215675,177.912556578927,74.08133046107,-131.018830592143,81.8775118128618,-138.351383764665,34.7074365942027,152.436416527287,77.665300871151,39.4017084846427,-21.0159864531468,-43.4542672387734,51.5682657143529,-179.414502552447,154.427858749761,-99.5509952476134,112.690052882955,18.9467772750966,56.3528342672545,-99.3763307793173,75.5585747558214,-24.2673340390793,-137.614323536395,-28.5782652279297,-162.806842585781,73.0877012822062,115.43150991784,-83.5864441340004,-148.614484854939,151.935101622271,135.001859153598,-105.532817607055,-139.90818006473,137.607686429671,-102.616462445634,1.77826319180262,-11.9516926803958,38.5559799540228,58.5118168705708,-139.769467331735,-147.386975884206,-168.092141607474,6.44426902636095,-68.6999633415786,-93.4810368130375,60.7480895927305,64.4991342003761,133.231518359645,-17.3872117092943,-94.0185662481608,56.9461947719875,82.3308696867948,1.64554650625826,20.8233353737241,-134.866843587415,176.013993332975,-29.895362848319,-15.5328752798057,-24.3696800810951,-61.8823395306905,-3.84410618421165,-3.63302541178282,-117.566714744048,172.813330219737,-86.2380711664982,-51.8520847553115,64.6961114549757,60.6449988091181,-165.005688487892,122.421422448771,-56.1403239231428,179.239613770316,58.8893645031241,110.976575872963,-127.149365410716,-67.2685102682973,-16.8869286297166,46.3710719053395,-17.603784383181,-156.858704122471,10.5154726541064,135.444585208023,112.008477377038,-35.8920135791633,-16.9125073405773,41.8385564131677,87.2494356746842,-151.941389049069,-68.9599498246659,-73.4785677714236,29.652018875104,-177.18734804377,162.029003407385,-87.952980029625,-56.2832981854073,65.3154386104476,-14.959930277994,46.9750443958442,-115.927998267248,68.568359037364,33.9683209289801,-143.98255534541,54.0082292795825,-74.7955001406661,52.7545805888213,63.568693708822,-71.9901724663189,155.691799155678,-153.596981587046,152.679016777497,65.0508905339119,136.475860064187,15.1680119060993,74.0321726763467,-104.67842020027,157.479725233097,-74.0822722296492,160.204370019883,-178.222961855371,-114.110258448524,104.88082342815,-67.3092752504557,-105.001114870362,163.254997367177,-91.6702352376847,-102.412167771525,139.182100509552,-117.488240396777,68.3247732228741,45.6401707614219,-119.927995004552,137.829270807656,-67.1460216815986,110.629391398392,-67.4920010995558,-97.0629778413891,-88.0645275611642,-32.8880936739184,3.33051665277169,15.5259779732681,165.26032271584,33.7347693311683,7.65969690725467,175.633075308725,-179.137530587428,133.640722429536,-163.946878234076,-51.3153150791418,51.9023730643976,-112.290346689735,39.1041945618955,134.166327413431,-112.745986845978,0.232683958849575,-143.850159069248,151.385216735599,83.4944629896143,176.793529372618,66.9846201438462,154.252289151786,-134.140063003846,152.723732317078,-110.283672923547,56.4662844504894,104.392037335847,137.953331734485,100.449056284169,-135.900944382715,-14.0359324895155,-139.260434036247,-36.3847503883472,-85.5609584475855,-114.343148015842,176.41979362761,-80.3693030506037,17.9713836140374,23.0537286237637,147.611631495639,113.221218002091,103.512243670487,-142.888188299178,-168.898462674825,-20.223852996084,107.556277050719,148.020944889429,3.68546910378291,150.219585325933,34.162456481776,92.0275186535203,162.247759038559,74.5679710043586,-11.4677265998586,116.783911309502,-59.5330081680151,156.611980118234,72.7222204266915,48.5623520426603,3.57314783713016,-124.559703382484,-74.9928233540706,33.3027960508097,-136.141934436463,-76.6063353869834,-71.9698200242901,-126.02258716039,-14.2170790499585,89.31457156374,93.0881570057674,-132.633030581301,37.6229096331645,68.2270406317664,106.356309538237,140.812258631286,-80.2522868005881,32.2484276233816,125.106609339212,-1.8766330948011,78.7550045182594,-163.056090166781,-54.0105870694487,-125.696027310456,-93.799564782969,18.6677505727347,173.451195045132,76.5873924411487,0.744197219967751,-5.94475445425709,119.537047916878,-147.744616310088,149.712043782348,62.9201961362599,0.730976091240059,-9.6398824542153,42.8718861780173,94.6301378268882,-134.025288740047,-8.25159429088398,9.82727257737009,61.2495039404323,8.78618173809311,-5.87031726326395,-40.2847763304198,-97.0348818291056,55.235311598688,-1.29118298053971,-102.543525221384,137.624785023004,69.09772190779,-72.7631562796538,-37.9302836429127,48.2021544214965,55.2434016257219,31.2096963744033,-44.4951503666284,19.1025844835307,79.5500922405079,-170.262622830956,-111.462959226395,-102.709158228904,147.660878432732,-160.690805823041,20.8608541372018,155.732905100603,-19.5206359488703,171.575255726676,-129.221252905889,47.8529925942876,-11.7580962148793,47.0718920545627,-169.486771588488,-79.9198587235353,-151.928123978549,31.2691048887109,-51.2492628104474,-76.1574705814628,38.4073335873341,162.520985093956,-178.277076301302,-174.911976916159,32.373408444011,-84.9672278093409,-170.586634105234,-90.789647806988,117.257011385867,-151.983282160309,127.991663469721,-105.502894107266,-70.4624237645717,-18.2418397181064,14.0411148374615,31.5754493476103,1.99158260850474,135.684589156413,40.5031176049753,89.1089741921444,49.7373853022258,-45.2474736637956,55.7016032011261,58.4007678457782,-32.5287729432954,59.9284389139556,1.72162508450372,-110.536009861347,58.8376817517138,127.114918248876,25.2489744760637,-143.019381241815,138.780805577648,127.285489587744,-78.5321283099264,110.81530451002,-176.634289044296,104.932527443498,26.0808950514362,-43.0544335130867,-76.7398492099183,-51.8682275455516,14.2775517739364,150.181749818898,100.741948740327,27.8021456402274,-49.9443618307656,21.7633889720974,169.32733111639,68.5448556551759,-78.1743024888465,-42.3400083201889,140.117100449739,-76.9320311497379,137.555097555507,-127.643773602249,-39.1222802611422,-171.680782396442,-99.1623373792426,140.883164995894,-75.6771806998973,-114.647012522976,-15.9286682103289,-8.80830231040706,64.4568633699005,148.783774763733,56.9601571692363,-56.8128376701587,149.328001659803,-100.234030896742,-113.842127563108,23.8775579907256,175.555838017313,177.800054423986,-87.5203616937716,6.73559727575572,-1.02521903665514,58.0753110631392,42.5944833952027,-148.631376437854,-165.32390285654,-10.5767479754733,-64.6795049787694,63.1814581662123,117.241515906495,-56.6810332362811,-77.7386784367146,-140.949126962625,-76.761755412455,137.393531402141,-6.01866327875518,-63.0146957737071,140.820684325636,103.583271747021,-31.1099981483074,179.563615462146,-13.2921778782218,105.994991683929,-3.83105645142801,-31.7191669791796,21.5799054377587,-38.6523524834135,-116.740212311885,-121.800922450649,34.8065341588575,-136.842216603268,39.4171783214781,16.4985395649097,-46.8913642286433,-39.7717580215332,100.148547520145,-178.331305181089,-5.74500269367756,-174.268924970989,-136.582879661507,-117.081906592467,-89.3664688003743,-107.664974924061,15.4534942217076,17.7794663717146,54.1546271122864,-130.730748168558,-175.204648039524,174.041066192113,-142.599011665936,-93.4079950042142,21.3222697473886,-162.643560372876,1.35283104676792,-26.1121495648708,158.667868445318,-14.2319950772047,22.3831859323278,-122.456423658521,82.0367058173372,131.860484146903,-77.0745397408617,43.6765664322494,156.636299552518,-119.17624946353,-69.0068496658853,-158.923212916992,-22.4680984902526,141.535253940077,-124.922701853863,36.4620568882846,-32.787534864006,-71.4246628677705,-136.342309080834,-130.608703737089,-140.851236328695,-35.824391750368,128.615214115914,56.2831679750443,-67.1941905661594,5.21903562084753,22.1368291276184,-156.333872023,142.238110616899,115.296058341807,170.909854611152,-73.8877332873639,-176.449520182231,-151.871940379873,55.610637430905,-2.24080115270095,-138.429155345,-26.2597580991394,143.83600881151,-64.5414061825221,21.7060147747711,52.617919573592,59.4101462448958,-114.476266200982,-103.769755911559,112.535588493176,-91.0221294881167,-106.789395916374,-133.093078802659,-85.1025388633394,3.85562989720652,75.5364904108354,71.7346985579501,-121.33741247054,-23.7364317363785,-99.5833222315488,-132.914105529325,129.639931116752,-118.067662586,154.985998416961,5.38639306154722,-77.3343738478679,150.858949101883,76.3577648277971,-158.765104924956,47.9440388369906,5.64591227144706,-113.038763971676,-5.11352792738012,37.4511233008735,-36.2457200732509,-106.392173668773,65.0496363036445,-115.807890822331,-106.980446640526,114.717612920764,19.8208155029531,51.6876672111121,11.4414472497414,111.460195119465,-144.661107327796,-139.076340328909,-96.399546854258,-22.5147900864282,-81.4756335971203,-19.4753027550733,-73.1445411668666,-33.4191402846805,-133.337752698677,-38.024032775449,-106.686614998872
72.956483660146,148.958613626269,-63.1817900436852,-101.991438245336,-58.8217814945612,44.0680916683653,109.478384311677,22.2073433334068,-153.939106446611,49.3253102320398,91.7385642718959,48.2954772816677,-178.145731356886,5.105732743677,-171.68563259542,-171.662423617802,59.0165814352846,111.986320373062,158.524698753367,149.106092231448,63.8325775573077,42.3269725695151,4.34099269584992,39.2144789851741,147.109577497279,-151.222738006417,-28.1738621675467,150.529369349118,114.62114601473,66.0284023271501,-19.7858237096963,-4.63982820184194,93.4695125764914,-13.5867626384846,72.3813569298606,-2.76027626900471,75.2588538273921,67.9766945365419,-122.344286790488,102.157401898772,60.1913712455759,-82.2476338150583,111.034332934051,-177.503569685919,-71.5651034702885,99.4573845880665,125.671885553361,-169.015554187857,83.5451710050311,67.04012928944,-173.640219218206,-0.55325893140091,148.07158891913,-11.1392335241006,35.2658661830516,-110.630423727748,22.0354800602075,-35.2748417654513,94.3918050231826,101.30284865384,-166.872990819774,68.6023566453883,47.7412087982578,-75.6934815487237,-0.0876316693182811,-4.18436990485744,-140.672036851778,-93.9617621786395,-164.011628927417,-91.5269217931374,-76.4543429289469,141.029669730174,-40.3693493085404,155.983822278418,102.743214622597,-40.0007461402524,-2.0824122116041,-44.0661690029601,100.712736435605,-36.5699455470026,-55.6486386986927,172.097571548432,-0.507143798787408,-171.498852740651,-53.4076457028769,-19.343075073179,-42.4191266743352,-84.118216018716,-160.668383856503,127.823728192726,-156.0136744862,-163.28694403947,64.7500948966094,-100.508457133785,-107.863542981841,40.9799259626676,115.08960734164,-40.0073957827808,176.127926998293,-46.1939132494849,38.0764347696869,-53.8027912122329,67.0945755484409,79.9391204422402,-64.7823696470616,97.9205767205961,-89.5161375332723,5.34891577284153,-53.6587799738494,39.3204814911697,115.166538335695,126.396440309187,-102.227834069103,96.6863635802264,65.8366574463446,-17.5060784450308,-85.7211298578409,-164.763097999975,135.765375947221,90.3934434571238,-118.353245422787,-176.828700096225,-15.3391111867894,179.132717511127,-178.429583267504,-55.6040434513481,145.152231405982,-170.339761247147,-145.273833437288,178.686806269404,-173.348417017015,88.9323916523432,-162.489426578487,126.765109031074,-19.0202092925994,-3.65195892851245,156.502689654465,-150.58338028752,-64.0933412857809,143.961562943239,178.726016258515,-175.877808530355,-48.0668662016687,-155.221032209328,-88.82871578537,106.244564489222,-68.2217544946228,-138.395795531566,60.4305982858228,-28.9730958356759,173.32595141525,164.969138239077,130.144631341641,87.4002929752251,169.398619718055,57.8082337921704,66.125517730785,171.892109925342,101.249307525733,134.921956685249,33.1896251107779,-90.8426219191053,131.382478446747,-157.753269197379,-17.7510287618853,-55.5343320079839,27.2246108628763,179.743518550071,-131.676811269756,94.3422227223072,-86.5973553990804,-79.2419331779149,-16.0011271878175,31.9688555622648,146.674517939072,-70.0018306028559,176.766022349486,-157.950588570272,101.39679879583,33.3992942021613,55.5547009840905,-106.996620481735,-162.864625718829,131.18940683949,-165.32262301634,161.27901647865,-13.96938601602,-136.60208691592,166.615645265503,67.3556254353761,-113.948672933516,-106.751406794089,-3.18540144879383,58.2587648530799,-2.60998175503847,-81.9716375803193,47.304113536444,9.31501868932091,7.84737521476384,-132.727157020316,37.0099746395557,-125.674367285018,-135.511575050902,156.249983152663,135.45131054984,-14.1558331739551,126.412331351202,105.237592719701,-139.81955216605,58.6548234137974,-153.665668283364,148.701481451915,173.551452305103,-3.70834610730177,-142.509640607233,-75.3595194274478,145.345995961322,25.1875698738241,-143.886419219511,-98.807022648533,155.747533010506,169.087371156749,-4.29382009888469,139.214140903918,135.590956220536,-61.4736376212707,38.4097856889819,-1.13920150619187,-54.6932361339106,-102.6255132722,58.1126018135602,-26.7130185782674,162.528423312688,-152.771797118567,-54.1159218858215,139.391333419542,-111.317163061668,-171.790584950045,-22.0169691851581,-2.75008074675203,41.8768187266943,43.1725432291976,9.97140973943894,163.514380647234,157.398321511693,-32.6350329393826,160.571582737323,-27.1733631216418,148.430298351687,-70.5105473478735,122.605082903277,101.330944704231,-153.306238529492,-19.9694042332957,107.615436528648,108.652258304684,144.979577519634,147.387203149267,105.695682582356,-79.0741323491639,11.4646868526211,104.029109038201,-128.573013806532,-162.509561362065,154.369508833349,85.3800929982369,-25.8556874149469,-80.0129379335055,-64.4419944478153,-1.1930661707372,77.0131071298398,26.5953324289411,57.8466167258454,165.21288297919,143.343772138773,64.6244999075922,-86.3010646257445,-85.3824005234102,-116.944507025846,174.476598497157,112.990892252839,-44.9265986768363,-94.5418612692269,172.693630175494,-22.952828489069,-134.005456691017,-50.9716804983264,138.456245708675,-34.627871142292,-52.0028808287144,173.339909780717,-125.129791531311,-29.1737211382802,-132.240854589798,-24.9625653686945,-95.198129820418,2.67612574055504,-149.81889363105,133.23181401613,-70.5243455010914,-66.8235756655976,42.1969090316945,133.841388854054,25.1813074554437,-40.6572253489162,-55.358183943064,117.867487119615,161.475172728621,137.878966199193,94.5613936959143,-0.970419045354024,-172.469851803035,23.4936781858306,143.346867586652,144.759380151626,-94.2718522191528,-135.126878241665,-107.814165333857,145.734753138831,-88.3977844364816,150.300246832201,179.34563703531,-9.89850034176037,-71.181691961873,56.6363894101746,-178.157310094091,155.489589280061,-105.41172921742,103.783701563128,-39.4656581909736,-79.420079451879,-5.62638239849758,143.798020821162,16.6683631795567,88.4732370492379,-150.314631018287,-149.9121327243,178.735482429969,-102.291788218132,-25.1417971161176,14.4269187889624,-32.0231509185658,-132.067604753711,-176.831823671203,-86.8936447975631,176.998525056996,175.488154238003,28.4082705020234,-18.1341471674885,162.432841573154,82.576216327135,143.299221231227,140.426488959186,33.9953818288553,115.495764097339,64.4523672574343,65.174232338399,-164.73041701787,-62.7399422036413,-23.8858073375783,124.331308737967,-52.7010221862693,0.875650365367828,-156.364717639351,67.030062065521,58.8888390362302,38.8892802073655,-177.260968583541,-177.5243267361,-80.0998956222064,80.95716588846,131.097566365662,95.4657743899173,-59.5995528463871,-113.415323211141,174.11638152127,46.4492772015123,109.29390749165,125.590120942699,126.45061229939,116.160097670257,-133.725878364633,36.1109208257265,-135.075811191324,-121.437605993046,-73.1075615435989,-32.1190000570402,-123.507584865552,55.436450669106,135.360330473089,-42.2332960520273,-52.3899095490644,-125.697787425051,-76.3063523747438,-89.7721852348833,-136.765405973202,93.8282545695874,162.116844578696,-108.682913795279,-43.2741234791712,126.796144924653,-12.7199566278226,-154.839037653342,143.905357443731,146.061248911665,-59.8318297520344,-147.926001121749,74.1477507583649,-29.9482309362393,58.5425822426585,-109.919758641837,-149.388489973168,138.216148889932,-28.7446531605782,-80.5939195642076,-165.976156740426,128.861836185195,47.3642673949166,18.876481620231,140.522079915704,-147.173666777184,40.8820666985425,159.96656420744,136.840257350591,1.19333454373488,-132.176685489944,-119.507816965963,86.2300086684843,-7.90574571651429,-179.333818617736,-97.028586546332,-179.064666417144,-111.980601448829,-3.83292638810527,-83.7412967381519,-6.98745640170833,72.8459216732321,39.237203986192,-132.059712705163,-79.5448373500246,0.330721558277907,-29.1022445029413,-25.2170758829832,157.552092018105,-126.380022832332,-153.523921436934,-8.72167011305895,52.193003979391,103.548827544337,133.592442821207,171.818063392274,-2.10939432301268,-53.8221934308154,73.1131157878087,-136.997154481427,2.36989481445507,-174.76662488473,157.922786012252,-55.383620789631,15.5248074520246,-115.055241889739,92.7392692551443,-111.964312738427,-108.408393789181,-18.0453845945648,101.503011560018,50.4720297475845,120.628876809331,7.06214320758485,27.0753701272031,46.3837422363919,-64.0588479407405,40.8091466214778,169.838235827138,-7.05160048401212,-179.939907705429,-145.20692695112,12.6592682122619,-123.638495256428,88.8929244289214,-110.34091811995,85.4881889124963,39.2885176097862,-72.1359852348611,18.189015062381,29.5464946702651,-67.1768936529641,-34.3121030180045,-136.019816241547,-124.327516725862,19.9775847088324,-47.2936916882735,-40.115567797783,-131.279795789695,99.656021642824,-165.219861942859,126.831383829306,89.8246362352735,-158.433612953574,-23.8091579232097,-69.0106328641243,-159.241308244637,-175.378517469598,-72.6024641604501,142.386021006915,137.571041993196,170.091561438922,-17.5318606863449,-15.4174179148576,26.0186223384562,-179.477087971388,-55.7210006526659,129.520673490552,84.35039402651,-138.298244817805,29.3303957142116,95.9363738413253,44.6256884874497,-136.785367995386,154.274172898114,-176.419802216813,-174.744839419901,74.2314692623186,77.4510222586477,65.9695789510513,67.4618376878745,-45.8487054546588,-90.5857270980163,-77.894761213889,-53.3078868575882,25.3774485339955,97.4419244960548,15.5284717597297,-151.878046361698,76.2425977301355,-156.654229709918,-69.6938535150416,13.7546579393034,73.545002203981,91.6754575068676,9.57840513458849,-175.447364977983,-112.742713594456,85.8359019903258,-117.337288181256,-56.5523473784553,-32.8966374745566,141.760933345397,170.804203680256,-121.378174029567,-56.5343195701515,-52.7548462014881,-154.271462758505,60.8163225343313,94.241199429553,-120.733089879444,84.5967536732724,-50.0882681110261,-23.4198587965678,-1.63588608304044,-10.4096438271641,28.5936306775905,-62.2942810307847,66.3512501639671,-52.5372610702435,-63.9595924033092,-131.872615809935,-47.0469286181474,174.288149459035,-21.1977621324665,-142.418755245172,-152.028874335622,-129.78520199502,-60.8464365162724,174.751479587115,-122.465805598768,-116.285006482063,39.4973580508224,-123.159702208867,132.538848265818,88.5796512343131,-169.604769147178,105.261075079962,95.8993399075972,-89.7735424113828,-6.49575874649457,129.373277806908,-90.9605585552575,-172.553068841126,-43.7990585577515,-15.1369544703975,-0.364572954653443,-120.124177173373,159.191684793603,-140.988915070058,-174.998009972594,-165.743688706555,162.276087717018,77.4780861892528,81.7483935123165,-177.102341111025,18.0188456672377,7.36603493738231,133.60710756309,12.9549151307613,42.4152339864849,-114.960060503173,-91.2768417429608,52.7116106944052,110.705136371365,52.8346036417901,-45.7721220971172,-147.943334066298,87.9336106171847,-93.129043240885,-162.046986541186,-126.265128041853,9.32277685188856,-131.684429704229,-80.3103856723026,100.35431041175,63.1874360714084,-46.2818946945893,7.97253100787271,157.07419428319,171.659833640719,27.5174448546539,-170.98094202438,89.9035568848274,-55.1512629579953,-24.6612978633142,74.9383352238399,171.452552402565,-18.1971472394675,-117.400978056331,-88.2072842039694,47.6540040474166,138.444563931333,28.4067216422469,-10.3072184300189,53.0625253700284,-122.002419930837,-149.975655420207,-74.3768851513963,23.3885458731933,-118.367851426405,72.8468797194407,-82.1363003738437,32.5890105669929,128.661452305575,-108.978595086427,142.218998178785,133.691457382885,91.7026212492678,71.9842833121912,51.4304956486652,170.041825514367,87.4902668548328,60.8217198363356,14.9228517116674,-74.4494722471089,-47.7167428588625,-66.9229953950627,178.967008944042,-63.2669137080121,15.3607744488481,-18.8490493869848,78.5623305544374,-104.503444395556,173.093208622358,-147.064626920645,174.592330255889,-84.8950038209168,39.418963945506,152.906329724723,31.3475999216033,153.210718986164,121.016316764646,135.163331355019,-171.718903822421,36.6157994551835,-95.8014292081369,56.5075428171704,-26.8765756815801,-94.9057990555655,13.8166273328438,-98.774982259107,29.5797346328341,-97.209094935051,-6.9254285426744,145.894217166888,175.753851346489,2.02250956479227,-53.3576087590662,14.1542210820466,7.68938520169505,2.71819491677987,149.284250738577,6.56992277274334,-172.155731465964,97.8039098597101,-75.0719685000084,111.48864097128,132.790017963346,51.0471726575184,156.004696233048,-10.8801312647667,-41.6719843801376,137.542149845894,-105.274877165009,-162.101276541842,-113.84772327156,-87.1702611429719,1.94249635192832,-3.24871742149968,127.261592328037,1.99643585036323,-172.995179771592,45.7312363088093,179.792794444261,-66.1327556453443,44.7729502091795,-66.5435424978705,64.4206627388397,175.090036611912,122.017348153363,-84.3595981862373,-138.27973187815,5.61316818732631,-156.542261974465,-68.0459160500881,-20.4545009164106,-109.979676193145,-101.527976028394,-126.520004428676,-34.3798068666579,112.753450328615,136.747541268235,-80.5265374332865,151.545414936335,-159.564679099915,-126.125993312849,-154.298549847755,-120.502525703527,14.6795194404723,-164.604358256435,35.9277018141095,-25.3409627396782,-138.953296075944,-84.5630846501153,-37.9876054754733,25.1408330309173,46.7432745872013,163.930081040995,-15.0172369225658,-67.0192606715293,-147.073426833812,57.6017972100608,137.023790172051,-136.47702609382,50.7117867919291,-157.164928059078,-160.235729048109,-113.178627447145,-59.9466061540589,27.3038758587471,87.4235387726934,-47.0681902618797,-147.307116425899,137.834115200343,-134.090312540121,-142.701262668676,-123.826640438735,53.5445727131041,26.2089391306346,-176.421639046819,97.7475859944733,-97.928659787797,-117.425041808218,-51.2673680576795,-63.7265977188751,21.5446496349753,-13.8053291779957,-89.8722276348172,96.3791961940391
114.718645297293,17.240157409077,132.212739686472,-94.0564322399469,-172.522166163855,-71.7519103610004,22.5344791106059,-101.844727243103,-91.1331653242887,-147.503568543644,-118.568162257327,95.7542278500738,-89.8314412179384,-152.480348130686,65.5680934952895,19.7423465885842,152.395282822048,-146.08634716426,82.3315876865099,115.248996894441,-174.80785728054,-127.142688901709,169.267707414729,-74.8925716805322,76.370352626655,90.9856069704948,-77.4085094532882,87.7441941722868,72.2415810115188,34.9481766216081,-138.43772155411,-115.344879222741,-16.8539776459731,34.0579365578875,-101.643941479977,-72.3272762245297,63.1339100510317,-121.578003568318,171.814851161817,-174.99012757844,159.479689083301,-64.9378401140601,-112.688435630288,179.27418758574,52.7774895726099,-9.14494018249404,45.4986416628719,137.871969902138,169.608842171725,15.2290546359718,49.8750069352583,96.0747339149251,49.7481235905924,-18.3639144946342,90.1832974085212,-100.139265723828,153.55639690527,-64.8112679178605,-68.41685836694,-133.436045791871,105.732733432905,-14.3733000343223,175.631693888384,-158.934280436149,-28.9695410456725,87.5084709051054,145.038469861375,76.5993980534962,-82.8444781233944,-93.5873603649149,-40.0862383951397,66.3280983713958,-35.0759774471362,-176.693528493729,51.0663063170541,18.2820588786002,-21.5474884553582,-98.9698687552013,43.8393054039853,-48.747200896865,-87.5944058223973,-0.940757008456165,123.248498813912,102.446220071633,83.6108405913021,-65.8477527336684,-161.166901165166,-93.2701597068858,-106.899490627654,150.284158957411,97.3690552869013,-67.7344899556377,-9.61899196605034,170.964914044521,63.7007705159196,118.368275822607,-44.769141854792,78.452667708811,-44.0670808642565,41.9046342866522,42.5992278865447,78.7167850858257,172.128300956458,-118.757220616187,144.522032252991,26.4310101442528,-0.641175279597668,24.3969368217722,36.7401668969243,34.004461691488,-50.4097013830023,133.595284788128,-162.853440108593,164.724676382968,-142.201767450952,66.5062456257688,-58.2111184047378,172.278899649846,113.448106714376,60.6967626649896,-134.63033233762,-16.8904608382999,-39.4217637688873,-6.93356324541561,-64.1437083772145,-53.5516279133339,-18.0725444779478,-94.0191867985233,-146.240033756026,-160.146071460065,4.72787942171122,86.7729099438581,-4.54361148894086,178.963637207605,-119.149882160655,23.7931937861133,115.217254729634,131.771405731594,-73.4384165179723,4.02809086750476,12.3244848359766,44.8766175247128,29.4048354405187,-137.081520666386,-151.686813366532,106.984357386032,6.43531902214737,-75.3433828495752,-110.079869412777,77.1413073126233,-96.9836004027784,-148.983039098588,91.9964435344382,19.5164290590363,118.01078829799,-63.7527426886151,-44.5396104690644,164.761509127381,-62.2748571814389,-46.9918682885359,106.058819534746,81.4126207406659,138.240728028614,12.806679128521,77.3215845901221,-84.3930087393388,145.666692634472,-70.323881841937,74.6140046581706,-26.8899246663167,115.423705433233,-85.8869046059739,87.475761457705,-84.2492858760974,-95.4081838661225,96.1957232901479,84.8093404978979,86.3438955897744,-87.9764506824286,-38.7205580827796,14.8981936565019,123.556323137409,-28.5869811804064,105.596708949948,-80.393311518466,90.1181592426987,-24.4762741181276,144.147895708534,-8.87856834520922,40.3913028756215,89.210505103164,-107.519077520191,120.633874892774,-86.2355098544208,-117.441218355012,-102.375117978374,110.603749023577,120.96286064095,26.8857508506136,-18.1485242765378,-87.1408081834634,152.000293161385,119.499985996285,108.724932640628,63.5008456009355,-80.5852295825202,56.1730108449281,80.087158456136,-153.592913326954,-62.6917471139126,-139.190798627355,161.479315423683,-83.9227146192466,142.40601061978,-43.7822841084953,-51.7419044982771,149.193366331517,-61.7262320130899,132.049753002648,146.173358827366,-172.330688966549,41.2891271108702,-130.261732023103,43.8140039120646,-77.0613173545064,-99.6089619128079,-132.125446476706,57.0874479097716,-109.204924868808,-75.7406289778833,-158.630106511368,129.31753945856,54.3396759919666,120.90320877367,119.391685326507,25.1198248175399,-75.81902107476,-150.509627407509,64.7468470022052,-143.042690208672,-79.1606943209161,-18.4598996773359,-161.541369229782,-89.2160338793604,-93.8839745248819,114.871111533264,-164.966662486697,105.326179461868,71.0521964183767,-52.7622330255377,59.752622652819,168.414438414335,20.4247313055692,-60.4687050815483,-175.601323562782,31.9876983301046,121.385942621538,-86.7166992058211,-116.206794493485,109.47105366431,-132.942554542793,-149.093736042286,27.0099675420398,6.38090770433765,-7.15688365493805,170.343281074264,-100.23494154717,-44.6434796565519,-21.068008431632,-143.173403975163,-31.4602056861263,-163.873187138192,21.0902747756684,-65.3829171794744,18.2720259174544,-130.689893228299,3.67881797423025,72.9085248380394,92.3582635396806,-149.522436694025,-18.4923944541711,-117.679281514383,59.3901666370011,-128.170998951867,17.0961934942843,40.1812969809967,86.9904910507331,114.205815315211,-85.8915083190099,-49.3757015103479,-106.843942818182,40.9718686347995,-31.066048898157,-171.183747249578,107.814159696088,-112.436517315848,-178.51082836793,91.8889885393869,-11.278927592255,-166.661639764578,-136.790382051764,97.6926745001966,-75.3817572523265,-101.615915168458,70.5167759728965,-131.165946809601,-71.2966529398126,-29.7741913313428,71.0486114444892,-77.531712252559,83.2353098474148,-66.9791625836211,-59.0496119885859,-66.0983489546124,122.616022088468,116.277118730707,59.3021798601168,-142.494635089761,-61.2603892309134,147.098401783488,151.986336570889,179.365842401907,-170.286057255094,-144.7752741934,53.082129822353,-137.975814324695,22.5031453642209,-6.0087557249422,-64.4874243170184,-124.759083913129,-74.3256140974504,103.722744566917,0.36137334495652,83.83460839697,-89.1634652859842,44.7625300158706,-68.0500262502325,-147.946940767129,-12.0829778307052,-26.66116044691,-95.8398230659831,132.237989064673,81.7092043277957,176.399286669266,66.4921508993617,47.021691193187,-144.157669963171,-64.5023306818486,92.5086813997304,-50.5367940840831,-147.515134315844,61.8808602931953,-135.966374092758,-161.211030996647,-162.103423744959,-56.1551218137469,82.8685106960834,155.26834897941,-77.3396364836251,-72.2211740560471,105.370530971631,-64.8973420542543,121.247180733085,-113.24198668244,160.731555567347,-161.663379100411,-133.703893289252,71.3266400457184,-150.36177714205,-179.557723311715,-63.705158118335,-166.757033814515,131.85409446378,20.8520330706643,131.178187940427,98.2679849011589,-10.2059382220271,161.542722956059,-120.389844509432,1.10507738791215,155.028951184547,-114.630348711324,-87.2327423525494,-126.847974596567,-152.804374794827,-31.973705387193,144.151727366646,0.583705916651506,104.851950135761,21.1463219764738,-38.6599514170426,104.873109397224,104.704842014489,-134.396037354483,155.140676803784,-105.91100775747,-116.205054807538,-139.053822633152,10.9736234742351,-55.8253698291871,164.867839326998,32.4523743471808,156.170678240334,148.975214247491,-72.6440956071613,-168.143585927954,127.130672000861,-25.7270694437477,90.2141290581941,164.554061299523,23.882803762903,106.441980314142,121.950525123972,-92.3667734760724,56.2669502662845,90.4326757854938,166.144464907052,28.9111786353843,-168.786432318292,87.9592698447935,-10.774469956877,49.2263029377831,-142.242796926455,96.2395252976203,36.0785535147615,-34.1048392735322,-94.1394689394985,55.2844327660381,148.871368536143,43.2429723279854,-129.69462529305,174.998493036486,-19.439076669758,31.1855784575844,-150.8651012411,-40.1233142360495,-38.5465940270314,-141.177961284341,60.6880536035255,-77.716775955822,-173.600390785313,76.5878196837818,142.978953291406,-47.441348942761,169.876459092487,-176.519839787342,44.0128678536977,-47.2795784638968,-94.6929318386896,-38.0532133725854,-18.4006181841889,140.371598955092,-178.035752691184,-28.5214346949797,114.862495066362,37.8738688989796,-146.313861267804,-57.5778011859177,-18.2433848668051,-44.4162331506322,130.222234340136,155.929223142204,-128.346440807036,-120.744978499458,126.138472241242,79.7196792852878,-78.9043297453534,11.7513786781945,-98.3997001173525,89.3295478361937,-150.800823587629,-40.1002824062005,-104.925406294793,-5.4201516159984,179.843542503812,-168.573142593804,143.489434110584,32.4086300060499,118.729888837789,-179.33650068754,-123.732892576003,88.1357521470353,-111.428297297349,-25.5096687205283,62.8293209642294,-27.2628161390061,-112.827498491038,91.8708756897228,94.4935075509485,-74.0973312979306,-37.996052658082,164.600098113886,-36.4233044943582,140.334496040121,161.23862863277,179.602057339347,163.569625628412,60.9523394906906,-128.460882576078,167.217335087267,-141.884030679719,-177.200400299413,120.304392465452,115.253703631512,-76.283186432546,-158.733211137065,174.754158738696,-136.915974598176,44.4898247263117,-15.5985828999294,47.8718889761471,-164.259299479932,-109.960237158428,-100.166129564949,93.8693608455671,73.7734828252352,75.7213147881912,-39.9513142526456,-135.733737869969,168.266632982574,45.5339134346371,91.6520023119119,61.0325140963708,80.4757830590883,93.6542446915869,40.6769674029565,-167.832619374656,27.8354391641856,-100.808061267618,-98.3376867364041,-100.303672065515,-40.2944796023288,-99.0568555731781,-174.891248576908,-132.724387924365,-56.6806086695655,-95.8320944740659,128.602476070717,-161.718862552916,13.9696552901547,19.2928171650498,93.4958234449063,19.3044772241099,-143.311720094036,154.985957810702,-107.711158077187,-60.7184941869281,-121.132169206657,48.7518033881205,-147.027502921583,148.253789430137,-111.965467839523,-164.119056969058,-8.96461703691844,-70.2132045287584,175.027701830886,13.1361751375807,21.2212379395106,-27.073904847526,145.20400854909,-22.6152342147394,135.619662974988,88.9458547081965,118.222861025362,-103.01381212524,40.9052552664576,-18.6874548162228,112.044515560558,-101.696878989572,173.0317288905,48.8805723737258,-153.958733744531,-62.2448900633398,-92.5377055653845,-157.446423504843,-7.03267608740548,-136.091645913898,-48.788348921524,115.119359772359,164.446099342503,-166.896402854598,-137.268114106499,-20.9158900258252,-170.158104485421,-22.2602968377123,51.1766561354097,-87.726618398234,139.001613820525,74.1766661507178,45.0992646060749,134.536776271735,-83.5772619871135,119.632283625177,-156.780499281347,7.11854251967164,-76.3015713413284,-95.0605072712808,173.019190684854,88.1580243950861,-157.804158851382,84.755804051179,159.023752701454,28.9556550576421,176.411855369625,-76.9527424545665,-145.715847976799,-66.9890379455432,-124.72743995748,171.44834511798,-26.4989722137373,114.9535482404,153.159766348108,177.529168624619,81.7510316086006,-117.687790729823,45.4349944202644,84.27968021869,41.7887494737618,141.220869655333,-66.2135688098971,-2.55708674536363,-104.762719251331,44.1696825187396,113.353137758257,90.9869150735457,138.510631780211,-27.5419864182534,109.545488158314,152.631653586686,49.1496269988775,-159.915686472186,-102.173899862834,-98.8621983887826,62.540320486792,-59.5000209836419,39.6273795661257,-132.22440618366,107.174736312926,-20.3427815168674,128.183131277586,-137.125609401613,19.759761570956,118.77318901705,88.4566483459219,-51.0437353390505,153.15293054868,125.363984179533,123.755081858072,-25.388205452069,42.0655831716995,147.929208845843,-127.676904308269,43.4914767237632,84.4870159304599,-98.1373687655232,-108.293184736563,-143.006500747923,2.13060890428521,-22.8729518448499,33.3282834282282,-51.4000469170896,-74.3246176531528,-55.0074436919422,179.329637773316,165.116709449367,-88.4747423103471,-18.3026218380071,-68.6821131933064,178.780163288891,5.30277514865196,-60.6267430228491,-175.038883800292,-111.578019102126,174.790440604054,0.598239800124346,27.4617913655496,3.31730674537325,149.889741969242,33.3657941626245,130.936030071831,-102.360241868339,-34.52109309684,-21.7106673245119,-104.704491132967,14.9543386710508,142.916035232321,-16.4980380966939,128.360552986351,-54.4717769719901,155.725278136106,161.923320105173,123.501362100604,90.2498710906023,-97.3547892766994,78.7029021855244,71.369957611244,149.477768304925,28.7300447172207,154.632979608705,-151.759753082351,-179.262479413298,151.79049520927,-33.8626259528765,110.143075731283,44.2230309225207,11.9918590754287,131.372822498717,-101.218079788442,-101.879047520676,29.3365551527267,167.403112448883,122.268079955118,68.2468933175909,145.433383794032,140.906611229789,-100.974790783659,-97.1468243569193,-104.784355629015,-77.9270227687605,-149.175052139699,-123.761866598478,103.048029467257,167.841419500597,127.827960026971,23.4351813637741,-77.2292297619715,38.7561187535161,50.6695256164758,-29.5328781081732,111.282257471731,-25.8443781876134,13.2187599772751,6.04451534883257,165.218168604011,-58.4794014302602,-150.924296705896,-12.7225858333502,-103.393255578344,74.4645889862487,9.87365942387022,85.2644440171761,158.142711353655,164.283284813901,47.9002969042483,98.9169178027104,146.117009039454,34.5034770268555,-171.588918490431,12.2743292049545,-4.5878163599157,-146.114315541984,28.2487859285736,-45.4166768410707,84.939555646671,46.6029411633576,86.0679319709712,-52.4251465447224,-23.798651362216,-76.3790357864791,-138.383562007218,-35.3269052029878,-78.7974803052261,31.2410824669015,97.3887392295454,164.162817168586,-119.976061966378,-36.5752125771378,-12.2999387674775,144.597064896586,29.8240842659103,-23.6926445884332,172.315324533216,32.3919478518655,-99.9319231896263,-52.241796327423,-68.2202094453099,65.3771939013639,-10.419490110798,168.988664376175,-44.8441401470194,-118.345404290089,-117.888468914905,-46.4719166680711,100.295934260292,-88.2992220007998
-158.270945225635,-4.65607304293296,8.3110673011587,-173.527454688801,25.6847822980979,81.5832638997409,60.493395384533,-12.4548833191347,147.043250436519,166.365880466872,84.8114308920445,124.224614004879,49.1542555615897,-128.492628199662,37.123795649099,-128.441491302582,-34.016022688064,73.2040408012482,134.715613340792,-55.0476360748436,21.4961373032959,-134.957489857925,-134.7548646988,-111.095368366007,36.540362561078,147.108117805243,-143.027142058262,57.6194716668745,71.4739640105188,6.55242615340298,153.708945267964,164.592060814247,33.4934886179179,-176.072061594749,137.240049941515,-162.803051099422,39.0902036121984,-102.241746479082,-96.7969206064172,-131.26691291577,89.0536602873013,-128.269000031149,-178.530394970402,99.3907165114289,-3.09409729821674,50.0255432527602,-80.1110640471075,8.68429946207534,3.37498848660458,-146.317675521935,134.097240194754,-148.292591693189,-177.513523778378,71.4559036972507,41.8937389850264,81.7353600754849,-154.256767500707,-106.102303466473,11.7655947483289,-157.012840383418,-2.04778759275821,-149.513536359279,-105.753252537277,51.8756948241012,64.3338114413046,84.35823667997,-21.2283586064519,-80.2066079490591,-152.696724423265,159.433283764364,-115.750951085394,133.503951062418,-85.2792140620499,6.96915941431713,111.635516672914,-144.097962581744,-50.5319275628428,11.5713824711929,76.8422471288023,-91.4040908586453,-103.133538874327,-99.8180064758685,86.3303303356317,54.3530211046048,39.2254264870344,22.2358102126908,11.4901931632752,-76.0421434450647,173.811850956254,67.5679874345607,62.158156077447,-65.7852622631236,-151.295338830189,-46.0571215387978,23.1852620227009,167.75222099014,-1.23289609997489,-13.5375056122409,154.196716825351,-117.924356016417,-128.381924985134,-29.7114325781062,-169.748909229722,-129.714180859994,-175.34588893004,-131.314783442846,84.8581114043348,-143.208082937073,48.4909464828436,143.6901293339,-147.297416379575,36.6677282866786,-108.423238580909,115.900622400906,-88.4988153630916,-152.628870614286,73.1530718651956,26.3864096917631,-28.7999651026667,149.328172675043,143.486967333532,86.9610416678643,132.980038359857,18.0104963263638,160.34440825805,-54.7179902243363,115.318827253643,-90.8212118819093,-113.093612701544,164.092612003792,-10.3582571205778,-93.3063515802055,124.445853563873,34.3603368465068,-129.984893581235,-57.6219253253636,50.7267677348045,-19.63108273954,-4.30158502672839,-121.367401997169,62.461662414322,126.146737271185,59.2685770425374,157.950486119357,-152.541777371169,119.591699105401,-3.73192148053528,71.9645384175224,136.411014624582,109.466747831562,106.937833994702,143.599277883996,-163.252135947277,-86.3605785276147,52.3264976843015,147.462413526071,-88.2427345072782,-16.7209703015065,-145.153016734273,170.436638155914,-68.6286707445681,-116.0236477785,52.9409111274487,-20.0363454350708,-135.471939783842,-77.2582776829215,45.7228192856913,-80.7652305354294,141.762739810306,-63.0276661156656,-76.1211439347754,103.312969225483,118.606276623824,176.231071926785,-123.614732839844,-129.35936993405,118.933795608966,40.0368222060542,-135.907623032058,-102.623178424974,20.6513932762017,-45.4295831183646,-86.5882262589925,98.7828929886332,137.629170558644,126.864273524412,128.681033661648,146.953984080076,-72.5933885353022,89.9500389040495,64.2835838593387,-141.895301107345,97.8897839357032,115.678520666062,17.8677366007021,-77.7441809269906,23.7089056016163,173.607554582461,116.328811714146,-156.934529209399,129.014297470604,91.9347722321075,-16.1566582387833,-169.113558315785,141.826567696904,164.22102313778,124.049968075889,-159.753019812992,137.399740899178,8.96997777840381,31.2948168277771,135.317131405508,127.746427336727,41.5529395988018,-57.0706372147476,141.343473972002,10.7139929840809,-133.734124044745,11.632857667699,-21.1388787050408,137.995908999985,-145.932228429933,-0.0862857493140815,-143.583931668554,-59.5872014559323,127.934769092948,31.9230502641704,-104.249965286773,164.495317312033,-70.3623088238073,178.210957282361,133.959989750802,47.359878506024,-147.225724077409,176.006725485425,55.1898843895516,135.445749060039,10.5377512912595,97.6334469626189,67.36837598739,68.4022558517251,-61.7044724185246,-93.2691886211983,-165.317534384228,39.2438592637614,123.965802865101,84.4511794016553,166.687408738711,-82.563081267404,-111.219708978276,109.701821649842,73.5848096602617,113.028104352564,-146.025378914497,-66.8922496736886,-13.8058136959891,-72.794047255605,159.465779171559,165.823689708999,-174.979435541734,-1.21151619218863,60.1187290596587,26.2571050541499,78.0225099049245,98.6191830423302,84.8539503793588,-173.123660732248,-129.027342232577,60.7355367298154,124.57903662341,171.540384706004,153.823849914466,-12.0523486118698,73.9436340410085,-131.140718339969,109.624158101007,163.482039412476,62.7557847231819,61.2136751086805,-60.8711796929089,-88.9756778582834,63.6625495200309,-41.272325401276,17.6548884765333,-59.2678966698515,-175.142548196929,-155.848650020823,-51.0555663955905,-32.3183844383254,-67.9861543532228,-124.90552303294,-164.086521999382,-62.1415787234132,70.7605176602573,-8.53876262684189,109.315460513328,106.090928287194,-30.2778473847446,21.032112469679,-39.6773949423314,140.450839318589,149.915183486611,-120.595276845512,54.674755907191,97.2095142421641,-57.5803169917378,-138.342141012031,-32.2495270892284,36.411016744572,144.584858149704,-149.227758915576,21.1683612079926,-21.9335745451967,-163.703852500988,130.534221693227,-176.740690875179,-105.951057101889,-2.78647374450321,-113.864282662455,1.5769976437163,48.4410643822105,-93.6717991966961,120.337040376147,77.4872246084865,-115.767446887663,-138.088845122022,84.1728697151087,164.788567358689,155.861988964527,-0.88432243442663,-106.787918044414,51.0136055642953,-156.431668668873,175.148094702733,178.053744383158,156.238096310928,-167.480132778081,-103.035070000895,149.256045474282,-69.9617222015163,-38.0744229826374,-16.9544409715443,-106.771677009349,126.145138400944,92.4453644869987,107.397017759741,85.8756253950124,109.733697755784,-107.803245365885,-2.07694610477577,146.000175117442,100.406643663147,140.321349378299,2.21467825458851,26.0851247094475,65.2618278726823,68.0816465722113,-5.34224851737367,85.6385039317511,-82.7061234033967,100.39602160775,-161.737470217581,-53.3300161779859,-76.0008943625816,-134.152424459299,-104.463942488935,61.8836872644359,131.759860694174,163.840430171108,67.2936913370292,-70.3130249895995,-79.2135649369219,123.570521067034,157.42843053148,-112.127222933032,98.1853455707442,-52.2130475892768,160.574945295745,-18.0937498504151,43.0695155407283,62.3985376375727,-13.9934969043519,-1.91049062909052,74.5746269235383,92.6423449087763,-120.325819912099,111.859729641497,-117.766672994471,57.3881320987098,-153.530007401242,72.6353057847746,5.34538435782249,94.009717817904,19.1157143645075,-95.3512276863349,-85.5900413864287,101.084573657939,37.489687716772,-39.7760703314473,-2.67491997550071,-30.7847757587264,-52.877021930315,-110.875151369084,117.252830718623,-178.240155919506,-149.816095970719,168.338592999904,-31.796684632496,-53.5398027777197,-62.1618569010983,79.2219985264487,-93.0047678405698,-176.018604129263,170.754130853387,-123.679341238708,-153.805504965789,41.4926997301015,-15.9496368307976,75.1899929356116,6.96473636443346,-126.064044615034,-139.724833663118,148.113414954258,89.6031472439943,105.983697131107,-67.4309109820509,-78.2117320204033,-110.98892897574,-40.2638375895903,168.97583923395,-66.1714578374227,54.2306049416188,-96.4236025394525,20.5888216674562,117.855195000476,151.250971016109,150.559413884542,-171.467941609352,-3.22788481046947,86.2423687976229,157.413802239098,58.3463795899693,-1.40285842166441,13.7157132378171,142.707123257079,-26.2229306928396,146.413384193088,-168.437609025922,9.41808632420512,83.2311812024392,137.414410553897,53.922238148155,-80.6292219251256,49.2600923175177,-129.512189984508,-97.2102095749518,-174.526259751609,-39.911092366637,128.689386856682,-132.15936882987,147.290792726412,106.94070426282,80.7107959532582,43.5533890919959,-45.5216338775729,63.7920957508891,-76.7618919118892,-115.19882007275,61.5402457572786,6.51975655034726,175.731536537449,95.5044037950063,68.7326301814948,157.536148066788,-64.4958490335196,-93.5142550711296,24.7079502502739,69.157303949326,74.039205559739,46.2011584411636,-142.545268894722,-161.261889988854,-64.0489084427535,158.480342824258,-130.860265250013,48.6167335188325,21.9014798090912,128.327839934618,-148.833589694388,-18.370832490675,94.7680522552586,-31.228384481195,-171.518860217665,94.9526365528574,-169.943802274077,-174.236341235833,142.493780282967,105.52226113386,74.4963407557544,-51.1946157263432,-143.215544203943,35.07105555083,126.807301683628,15.244702452354,-168.26081233745,-59.3275538018765,62.1851976028616,-166.700674066395,-136.927614833536,-84.9550849782534,-9.55409358195333,-45.5335861923647,-87.0519885406872,-162.35877805364,35.4563749409217,87.5602814127078,-163.81480879608,47.5553184776955,25.1807663317307,84.9889073663895,-11.3772991512454,-113.64384195675,100.181384006454,170.158018742068,-27.4223810443513,-78.4578162851576,163.412410279221,94.3589681126888,-53.3600204698424,92.4069524941201,-146.291566153078,-43.5873289216496,-1.89029554785399,152.08389074505,-100.545313880163,-171.214570574383,60.1163404457054,127.893644962134,-135.349152719879,61.6256665541953,-13.7524314182955,-7.37116904769605,26.1646076466011,-103.111044975762,-177.350769633316,101.482571939531,163.477845520234,8.27019674671902,151.882299590497,28.1090405589401,-153.00027446838,93.4829491763474,163.750460209515,-107.558628852644,39.7225037656236,118.866693494166,-78.2939989108295,140.476261258798,21.4185919774191,5.75368713614098,36.7472230508204,-152.301199118378,-141.860264217962,-121.132911138307,12.145427577931,85.4756813048674,47.8463270881408,-35.8848922618086,-40.1100409116925,-57.590827785306,-0.0206010112385221,177.170561123627,49.7895082433965,178.562957133227,-124.066537372586,-48.3950072559923,-20.9125190353123,172.481979114145,13.6528147209858,-84.518371907228,46.8575536369929,-1.29727931043453,159.69688515457,94.4993536628134,151.722592787856,-0.137389305448313,179.426526167907,-132.193451994097,-162.001354112481,136.254828783681,-58.9160575973876,139.904752385563,81.8040329914895,-21.3930857113998,19.9103051422919,-83.9242139272085,105.46293231282,33.3366965145924,24.5600450480777,73.4219685044311,110.051026572878,-93.5513127549068,-48.387913145279,104.616900588789,103.723572122163,-30.9631450590675,-117.620207229612,-132.645107956379,-13.7668731518851,168.783147480108,-37.2588484936843,-52.7732254948604,30.3572174166617,79.5151560873913,110.664134960165,-56.1234297574321,-9.78568752992028,133.588677077294,-114.908785480834,-68.305701526395,100.754189929843,105.413348868086,-12.8490923132487,166.013723425216,-147.052122639759,-168.363544097629,133.456035530336,4.76005639858009,145.896194216155,80.2989315845876,12.352354946685,-37.6307908917403,-102.840909793542,122.31045132582,149.900276145129,-28.1498350578164,-100.398558799068,135.375513459135,-112.737903231713,-101.138469711393,-116.851671685368,-105.597618767008,-172.444514541221,60.5550358090898,99.7246944043139,6.2634893904305,-176.42622173444,-153.02541730173,-52.8410091296804,27.322780116666,-70.7224700646037,174.796779452788,93.5446506194754,101.814874856788,44.4161266803904,-153.700306765303,-12.8763781845415,-43.2394671972118,-136.322922222213,10.7098549576499,70.1031617074905,32.8313229314876,-15.3205726906831,148.82178974358,33.6826517043725,14.8493876009452,119.932994880733,-138.629491086248,48.254306716433,-84.7271373377148,-93.2062673775963,-96.6925095600202,-25.2960568566964,-13.1890924551956,-24.7894020084292,2.82385886528936,67.527776672772,-162.942818370726,-83.2291247423187,-62.9996310119301,-108.872048407999,-66.9482322482381,169.817418999988,-151.749124566705,149.719716858611,92.5917780548222,143.852769096074,-148.259408095521,-33.483783385524,96.3490494086012,41.5452036268033,30.8729766433367,-35.1028814453891,-105.208575676761,-61.5836749615161,-21.7904470563884,-122.631185285764,34.2460176193301,-179.47360810254,-74.912253564113,-114.80100663084,-84.827550656712,62.3337696911788,131.052448209866,83.3787089957054,173.447131637323,-79.8773654365876,44.4792443332609,-14.1712215790187,27.580237539491,1.97897155265442,157.355318026634,35.9161169004793,-148.621183055831,-168.190838923272,-146.801885261257,45.8373308686967,100.548063790475,118.147856537803,25.7500749947169,-111.472586826367,-169.947024122978,44.0386819387494,-110.01036582215,26.2255598578054,15.5270874544678,34.0820412276748,-106.303193778529,155.248891175284,-60.6691141038431,-58.5434858732826,64.6505422144526,-135.209653197646,153.012278446417,112.418378803138,-99.5208788019714,-126.571052449867,-48.6127639329534,-29.0938848743195,-66.6887817061059,27.5307542666622,-67.402904689038,106.85250389553,115.022233540315,-124.174499447031,-109.369892113485,25.1093133064507,47.6814016500005,88.0919407385983,-170.15494902833,-146.199144922451,-12.7627562622741,-96.1875936469255,-50.9333067872535,23.8812472804051,-163.48383386899,-79.9288380745989,-28.5039480543766,84.0940729455127,93.4910612384522,-122.418939755436,159.933040718005,-86.3885247875139,157.299847889502,-21.6095912312519,-118.433036292743,-130.275848542516,-98.7885534485315,-8.94476619227631,102.984846899807,23.6006719643398,-12.2906533927168,-0.220994584555941,134.804053065646,-52.7692905417826,46.5846413643378,106.937501459345,173.933082216639,109.086594404522,-54.1034025055241,-101.246238997569,-54.6421116754482,-128.898274317512,-79.7187780978404,-92.0989640671659
-88.7646386629917,-137.740411140963,174.560809193036,31.7156609876107,152.88730126078,18.0124743284999,58.9266050748986,-90.3922705525639,-136.332361967249,-74.2617718872201,111.428197881303,168.566149702059,91.9465680023381,89.9193098225947,92.6098121502861,140.842159311567,40.6096975439031,46.7911361256904,50.3884317990716,-65.660019765799,111.804180909013,120.978112867169,-111.302594760438,-146.006875849585,46.2977236756985,123.861094016134,0.875637327376198,-76.5368212936267,47.3053035314907,-76.0034770561126,-27.4490593246203,170.633840328366,92.8154149685472,-142.618178484049,74.8914452309537,-56.7553417949971,109.736763695775,-88.1330327799743,71.9298123851117,-39.4718820126586,36.409147705316,-35.1286381172643,74.3121229706042,-78.6486865256261,-99.4253791958618,-35.9735683726274,74.2846130459244,-174.97156378173,-56.2981008691218,-7.13321318923273,0.622526862832873,91.0632828240095,177.361948852444,13.292281046387,-46.7173463723676,41.9300047334913,49.1893397121715,37.06635973642,-134.796257771422,178.619393457275,-158.035338630224,-141.028830364555,-50.6553917184777,-139.981089579348,47.744998664692,100.235269759905,28.2915000891247,-137.185940340436,148.755758221905,115.981625829845,-143.728867035838,-143.961433840539,34.1703465692003,-80.1843424585578,53.4545024579363,127.833082366805,-104.136164714882,126.593186582931,-112.30232977346,-91.0735453553123,-170.575903058575,133.343583957574,-7.14331049228552,137.367888715719,167.54738465834,-171.362532726122,38.9566082722436,-46.4885257502391,175.135862987763,-177.027637949453,-45.8730662526194,72.3010503536701,-74.7128370293134,-91.817851790803,169.485929747055,-87.011903085284,106.696484832741,61.5890788758523,-65.8772185815531,139.541722295147,-177.690059056849,-94.2375127259672,-137.060308276656,-1.7501205958803,-8.70241417084427,19.8831518037211,-55.1790662101391,-133.406712654882,61.7465783831985,-130.379147068688,-70.3099255989481,104.912725589921,97.205575421517,-7.65406800359681,-72.3266842938888,-122.09173278236,-78.3932454057395,-13.2632823221244,1.19760002746426,117.797544581057,-7.90645699259859,19.9731872027991,60.1015202159382,65.6411650333628,36.5462617963444,144.125720605546,-120.179571106985,-127.825720398497,-178.419232343629,155.213786853216,98.0605631710237,-100.959043318954,162.116017735213,71.8834453392215,87.2249999289119,-14.2692849780808,143.116185067457,10.3927444491256,-141.60638829591,94.8496789259771,130.128921193133,-20.6087352361858,-131.239580928951,-160.433572400304,121.215693232601,35.408238314934,10.7027864505917,127.937500733738,-1.00657645940531,106.718280348601,76.4583590647944,8.88769616505835,102.315372206883,56.269842375983,-9.08151299832585,-117.068440878107,11.7621194082798,-3.51406047146542,8.35423279919621,139.927514848762,105.569241174761,-89.0633901408967,34.8804032628478,161.418709785022,150.534596487268,-178.0432165796,58.885555671422,133.951879543544,3.32821725625497,153.084448032802,-149.913548882775,-33.061517561238,-6.06609210479842,-16.5843447227459,-162.471583608629,-95.3873253057725,-101.161562174197,-57.7177369574799,80.8791492276615,3.89597673975326,-149.36350441912,-139.325007731353,163.442930221756,-87.8821825082441,78.2602100097133,-138.245014495622,-18.2808473015963,32.8133312379162,-133.596267637139,-133.818963949751,-156.772395603964,-84.9961878123916,-157.405573701091,153.048589577131,-105.001065225956,51.2465558165383,-167.940062073418,-73.3132053032316,-81.5703374829719,-31.3847838928169,109.019130598048,-41.4241375608599,-90.2024359563807,-84.1535425649464,-49.1765317069623,-20.0712418693911,-6.84988360540383,33.7261880345862,-16.0093934944657,-129.837230801505,-68.2715580682687,60.7247127444736,-18.5793146589707,-125.111164585028,-96.3152635758452,128.049050260413,14.7501070169324,-75.4547023686908,-158.417224248707,105.064309222147,-4.6841721397274,94.0186132273176,108.943207968479,94.2414875372287,-164.202209581092,-88.48265679777,-31.9502815234892,-92.1062535301254,-72.0248665890376,138.129223580848,-160.546542181965,-98.1398363644841,-43.1098861488811,170.269437210231,165.099528659223,10.7918888600862,49.1343062344924,16.7602594746981,25.7542926587441,7.91240614433579,95.2009661782594,121.004713062281,-154.941178676555,50.5555364674023,34.694668349449,126.360084777183,-107.784491754209,103.749736463165,-127.702513826816,127.047859349883,-68.2487728952837,80.9146365495035,-104.319147341805,1.66501299851026,-69.1469158894159,-97.7622171930648,-131.336472693882,47.7913566151213,-143.227826449555,-53.7445972016596,165.082689848143,-167.549025897562,-42.5414023688448,-121.613363117052,-164.51210137503,-40.2923842350816,126.553161827733,145.208542340816,98.1162976327391,-71.0816592846431,-149.036531371092,-144.63811036161,68.6322619256094,-92.1584312375057,38.5505218961074,154.402748953215,-62.1917301615482,70.1042382759331,124.98767592311,146.683875514196,54.4831824735732,-60.9699868407439,-144.489001222149,44.1897728136885,-128.85471783704,27.99725452862,156.196687255933,-93.7175470848346,154.532788191772,-104.465492812274,-25.9958350060376,125.417182524573,93.2042357582201,-36.733878277312,-110.76372280522,-29.5861489466012,102.516615180397,84.2721113901066,-46.8477432738095,75.4991836564811,101.998596910876,93.1090489632248,-154.702488544198,112.473657900252,-144.797873329287,165.550613211446,151.619884455095,-129.734405280463,-84.5462720953481,-128.862330343095,109.208414998328,172.309468723719,59.3721106554442,-176.351259286383,-134.10335248292,-144.613788069458,-153.381904070091,-175.19948151768,-47.4996572960568,-111.573381630608,-72.3443258665142,14.1561065900466,-51.661601855016,-177.714838437067,22.8713725472682,94.4074758628079,-172.630577217645,-179.851253715026,-43.4645753888171,84.3473203532868,38.7682594690495,-102.602031361023,-10.6435886884351,97.897760998276,145.83511183266,-117.801345052255,129.470163445527,-145.024043730971,-145.832138759922,-83.8595384128497,-78.4482206415186,87.9886010496491,-101.5211586988,-97.3903088906949,-6.77314493554191,-47.8858149051183,-81.6257317742078,50.136061468821,-166.174444989812,-103.720429766985,102.893499055275,87.3416806342199,-145.613996581123,138.892297060217,-48.8007715728984,-144.334060156495,-52.4031277505595,60.2404864819089,74.0594883255009,-171.282298762248,-67.9302458590838,28.4496940022905,-3.50718059748289,-135.728588260766,-52.0489159085445,-12.3722486341921,-179.996066543165,-161.000453232219,74.5580433953613,-107.120507042883,-32.0366404030127,-53.710793913717,151.579549262034,122.245540641138,-58.0006806346805,-28.3967846152673,-156.82229480928,-172.888974124459,-30.5628150295396,-171.584653587029,-153.168674704467,-18.4994806257973,-4.06570487296608,-106.798839337885,-32.3274976064081,-171.131064170405,55.7838991753043,136.578701728045,-84.4982490280874,90.0550263789098,21.298475504623,123.683364122552,-31.4836978367713,158.006202177645,106.700395752488,-26.2070561665304,-5.72968647827202,49.7339234424286,-156.546077192835,55.9634238413684,-75.6486568803149,19.8616390077809,62.5372284543786,162.749031449898,-122.163982868952,-22.5884983849191,118.929575394621,89.5244786750042,68.0743452458217,-119.513582382358,28.3754452766517,110.859087688862,-96.7228493794451,21.7877719407566,-132.615168523754,92.7758663481819,136.144666675016,-28.7829787025582,-125.975281323556,103.770595669091,-50.152015890474,-24.6386947164287,48.7375589703431,128.36985298446,176.050521955777,121.862433167064,164.70759364124,-113.450030726318,-87.3779585513337,81.3308579155811,2.26935961232909,58.3064022278339,68.5438730231911,-65.8451617383459,-86.2982108705054,74.8185731229926,143.892028675126,76.7305384969335,126.394205291692,-31.7384172006405,-117.512311529634,-86.7714749709574,-157.826722377799,69.6853313030054,118.42742700944,-14.8613333937387,76.8801357587828,-158.456098497254,-141.133006329286,24.6064252543804,-54.4136541017071,-114.759551150484,-65.7402005512614,7.08003286715178,-162.349975290157,87.6363444149199,50.031738543844,-60.4472979525472,161.944632208537,49.3067236817345,118.778773314668,-165.395931964355,-170.528019048603,-56.565576379115,-43.5485204063478,146.252788234262,163.772698015575,60.7928333693646,-99.2913835738821,-60.0743456938864,-132.420998289165,-161.086878505021,-133.258832785957,-135.107275063379,46.287666747845,-6.61139518522272,12.1417089300505,54.8858926308822,-172.106240157846,-46.5124339132601,152.999747594938,91.5164598660466,-50.2064914986337,87.7472877449642,-80.9804174508235,-26.4447427785952,-44.6062042114539,89.808925386527,126.744156082922,-174.524326278503,156.48867177734,-167.079034089171,-149.932203334021,-172.604262908433,-5.11206512132607,-117.510531495036,76.5868876715125,143.404513638328,-155.86182160908,-140.852868436325,-150.017669652443,62.1802727329824,149.172914404229,150.32805704135,121.846783880628,18.357860205812,119.380522473936,-161.751220718318,121.84221222984,177.392255576257,-23.9863728636129,-59.9216623927249,23.714376252122,-23.8113569653491,-65.730542785746,160.22652679013,13.3086617017179,-154.71353446367,-166.335185450178,-32.7554391604555,129.073339148175,-3.46800605451513,69.7363625766243,-133.761121925761,75.1515206280299,48.7344497321391,176.422742999433,177.38943565493,60.6501978251175,-90.9149662254055,168.220412736673,130.234043023181,-92.1913574763081,50.601704256847,117.694542490219,59.9499665237215,43.8432739227132,101.325928696357,-103.930534935874,-48.8591325452008,-61.4444688283404,107.527211742729,138.137453536627,96.9417893452955,-68.6758403617796,109.296234079351,75.9736158818293,145.985134847349,-115.114717540108,-7.176801276146,-131.459168733337,-64.9013886154613,-50.7286781095939,1.31898050199867,-137.442718444504,-118.996011839304,-114.338333109275,-146.025950882987,14.4900820125901,140.603228059726,-131.394421707073,-154.325546345064,-71.4820885156587,67.8044000263695,-164.452551953993,-21.534086960446,132.532396358555,177.456560870598,-122.554626879542,-118.410403763982,-161.769420462898,-51.5913822235773,26.6254987794573,153.21111205054,-96.503073762423,51.8139169268402,81.638582125405,-54.335696499576,56.4879946046409,148.295296029875,154.617160669031,-164.86368859061,96.3831583417431,-96.2509093050017,116.985772431888,148.863932164719,-140.241584291833,-91.0941241948281,-34.2810531566737,-56.7592603184381,96.7755013573292,-15.4880652804206,21.0421499994398,-125.746816990333,22.2618039720953,163.832721959203,131.470430763709,97.796099795196,130.819591642321,-7.43415882014063,-26.1564800448379,61.5515459399413,-12.5376112363738,34.9347512738183,-19.9073191109011,18.3509649961216,84.9725044986835,-2.26467660363633,-55.5851244225873,-153.955047861437,97.0111241658005,156.246293854316,-102.89489875334,-59.8041064761164,15.9831247393245,-79.3584971284009,165.41121625834,-93.9239187063446,42.8325321341104,85.1476582742482,40.7227678514563,49.4341330263388,-114.651312621611,-139.985474632916,-128.638492163766,-91.8747819336528,-9.93326866931604,-140.004955457592,89.4543616259963,-130.650752850048,149.313122495383,28.9857437693926,120.258373411887,75.6668356991544,47.2902101766492,27.5216076819036,6.28486176212172,129.568554696511,157.296650765307,-178.773527217489,2.63668264903921,-10.2778354546507,60.5440024946222,156.284087963981,166.849129388985,114.218444197337,34.1815460661927,41.243710600869,-20.239873372879,-108.529400719228,-12.385519018064,1.17646205275137,24.7979702519318,-149.457874027531,-3.42039153215097,-115.716023893361,-127.562211943094,40.4047479683581,98.890297986694,115.079562744594,22.7721215762496,-35.6028696816851,72.3075711759437,100.437474645358,93.840694658838,53.067936804221,-144.656886458598,73.722641008166,-84.341637354588,-38.9454584280385,170.499662317775,21.9726279704527,-66.7438398032331,138.696732036129,-178.207518943391,87.0222108725751,53.220335378914,112.505637565041,179.48185886979,51.0758448357862,34.4324131848074,-82.9754902523203,-136.898201469348,-29.8909545595177,-62.9499859827021,-16.4227742318362,-145.178620495771,-9.14201908342455,-84.7428642511444,52.3407386831096,100.167002649083,78.940818626809,83.8232534602879,60.6200286691944,-153.91795755716,76.2321653251693,134.553487519865,33.6020084117014,-99.1370562166759,12.257728915065,-140.338526147813,121.495375002503,-20.129526116483,78.2307548355726,-38.1866147079218,-58.9977307113103,51.5731979840938,-102.170388822786,105.797120624456,118.862400754389,151.454239523507,-100.249028644609,173.183895242605,128.150987148897,6.04889845419014,-102.838300711324,-75.519390567999,-23.9602903243053,136.933021897073,-96.1451492592755,-35.9862096054905,123.37392038248,-99.4364507148458,-53.0419274219379,176.598911787598,-74.1666669886252,42.7411740849057,133.326356977754,161.78200926502,68.0496079084069,54.2090548116512,40.6158592633506,90.7476755936598,145.644698361065,76.2266577381305,-6.80809667633265,50.3863096652589,173.426274023735,-179.79304164868,6.52696503999073,167.053738816335,3.74449716907974,30.5760759994493,62.0475164310427,-79.9061441056195,-93.3625727470036,113.851421598465,-143.440178673728,-26.450581418108,35.5148126133253,-10.1854303026536,-154.65156766097,-122.740264453054,-75.044735434401,95.5273853610843,-126.178846482579,52.0560719084051,-163.324589125603,64.0713872508307,126.486114946112,139.756105247471,-179.520599116565,121.880609030269,-27.1153922753106,5.16743919190383,-2.85914134216141,-141.295386293149,-162.530957422692,20.2299942718565,167.179891796113,84.8163607447868,162.910377639433,81.1989755341534,31.6108012231566,-127.383984645409,120.447543867805,120.533108476959,157.849817967247,-104.628310116023,-13.3189741908122,63.6256423911084,127.645703896564,-50.7098471699718,-19.9925284268899,27.2212263850701
-159.037305874967,57.1598209497269,137.609418864254,159.61183890055,138.5961676655,131.825330802573,55.5504855305248,-123.160738934753,-50.1154519935286,66.1881605534103,-10.4530784224269,-131.712443093687,-54.5424454711086,-79.4679921867337,28.5801794839186,72.1525687911983,108.650542051836,-128.573488761093,-173.839724588542,39.4986023239906,-52.0125721189829,-59.4941542753672,94.5111873247964,-7.52967108395207,104.061268374447,175.986180614591,-178.43394675708,100.113435964726,98.5567901303087,-163.745254434363,-28.7101700532522,24.6242310000517,122.385959034177,-16.7449640087152,-63.9621619698514,38.5187955957271,-76.8300118746638,-83.937880291762,113.982245219948,-125.420462039269,-176.839649251108,73.2199354980488,128.008076733439,-170.049224543467,23.2252670128439,-171.071024721175,-60.061957781311,-151.072654805243,-0.00732789322924871,40.1381513066555,-43.2489888358682,16.4781680652522,15.1539369938071,161.483651902271,-152.967756520811,-25.9273898300003,-133.896278448955,-100.898432304975,-13.8163769531466,25.7238714751875,16.3069891233353,-119.16952317531,-42.7422155893829,-122.704742447216,-38.7018321551471,28.0456218070429,-100.057471800325,25.7155123020618,-164.566264871781,128.049791361002,-130.225280288414,45.9504654578743,-32.0003915071868,13.8868308773715,-76.2942727770119,-135.896775970545,146.59406134268,175.659517872894,137.931272982517,124.573296330143,98.6541860542227,138.201401002674,22.3844226667165,-33.5429431200345,167.671277260075,123.050010506432,-167.14216761294,107.176391054279,88.7866518022232,34.0975839915341,170.307046201612,-36.4275105988759,1.97442377163277,164.217891961014,68.6393658303926,151.416503892037,178.50785845654,-178.034473058233,-34.8779345535721,120.933253439054,-74.8367584091348,68.6425607968691,80.1255244848978,126.202936519594,85.1999700002548,-87.6851094570985,-111.144074062594,-105.797228216586,-152.556274749362,-84.3651239232331,-59.0039335234352,-39.2862598338786,55.8874438675778,102.797975553502,104.611985263734,-51.0769388787607,58.0191365917725,-20.3371362089522,38.9966001359054,-126.511389200941,-128.627572968411,-45.3065760238171,113.632427943418,70.8067428122326,-57.9147092073694,61.136362556108,-153.93355538655,84.9403061182897,106.082576028406,39.268611960143,142.424830743479,83.5850518723474,-44.3250879627424,-101.3544810793,132.549147617951,-167.971800783169,74.1127118296084,75.5288121713219,109.557998777264,-163.424629648066,14.2376008342067,-57.35296824514,-87.4861430049007,-119.949505215878,165.507579146965,-132.15422707824,-3.85584335632247,-11.7774981380832,146.234950606809,-73.7447267053878,-55.4544015826892,123.230586091309,119.972080926059,-27.1189628071202,130.760024244418,-72.265457645256,110.778196275778,-168.147862818539,49.7200579357932,-53.6869047530087,149.576153132596,-63.6706911749365,-179.515281567889,-19.1298978382369,-95.4854473305045,-53.2749407276233,-158.436644291303,9.07785200400603,-119.482977919126,169.418376349274,140.699438659143,-124.981066685498,-39.3592509418341,84.4011872684861,-36.61987086068,9.07885356449055,152.491897267371,-5.23144224187604,164.859569763587,-147.000445117411,-124.228395928729,145.93937945508,96.7784324266987,-20.8242091728081,52.2335002871286,126.071051010979,167.783807664651,-179.791408762018,6.07584586092079,-30.887001148387,47.6874203693259,-99.4327864226513,-45.8203990854433,74.4044233942463,-167.870154021614,-58.2202619541821,53.8249996045617,76.3454669149569,-68.0153287428316,81.3793551793722,-30.3695359530628,-7.07495699442428,159.257974488574,-42.2795049414998,-164.743305579133,-65.3107879076475,175.736088544767,1.07583821937625,83.2256027149679,-77.0442868200997,-98.537714576974,-168.771635796116,-72.096234316353,-179.822966476322,-31.7601923461945,-143.793620472999,19.8305163886208,170.097499150235,168.726485946327,88.0328421444301,-70.9542924883043,-156.542818584193,58.9766191306674,-172.927860244556,-8.47782950852477,114.48918439129,-59.745525972841,168.697559810601,-123.917935431464,-147.788905651514,-14.125627719052,72.2026093163674,64.3926442731509,18.5391629781079,74.7605294345735,178.002151082167,-60.2934752701426,-28.952180117124,118.075910294387,8.40000500856402,30.0932152341472,104.238336155385,148.145794760757,-75.6197734925327,28.434731399015,-34.1583199790979,-67.4654315022106,169.514010132668,-170.902552236976,80.219188193571,77.7510963991377,-50.24807858455,5.66150940369736,-42.7966290897586,-38.7554924680715,78.1284489736174,19.3270958721346,-80.2199138016312,158.507598236747,-2.17489235927179,40.9415801490582,-91.4469426157331,134.710048764986,-149.579278894077,-148.725201155965,-159.335810910215,98.6446264851518,12.1332655066081,-72.2466143819364,-165.376787401426,-32.3708238531332,170.998191215898,70.3858942292594,45.2522911756946,-145.271452007757,38.5449377131024,-166.246816080358,-35.0067226672028,46.8040300293125,-149.525317620333,-178.108658989802,85.0472583641748,80.8989407006121,144.219933444227,-110.700635227358,-154.410913165867,77.5717183928329,122.673409030632,75.2692690296819,-118.787144483029,-164.958423100335,-52.7937334506463,35.9719146330054,-155.429659911264,123.878278844283,-104.94221378962,93.519982088129,109.858054812307,-112.697210532838,45.3213157322329,2.87228857555184,-57.9218470942425,7.94247528642608,3.39826274786929,136.541913859428,-152.834424389296,131.890853621975,-54.7663956972961,-26.7003455089031,79.5056402470325,94.6891545790141,7.25780249910995,-157.689390419834,7.36004739354374,-44.152676298895,57.5836817000678,152.656705237718,57.760592393211,-107.809261491571,-153.626801647028,164.04797444931,63.5288396735543,173.923595943033,58.7889854236412,57.5655159309539,-164.116722845485,-105.296840683403,40.7590430181511,-49.7709921319502,15.4592042740217,-17.4570899317834,-104.705183989993,-72.8642370127552,162.418882802683,7.51299613239402,-42.4610239743226,26.9854335004335,-163.342544371232,-90.0804249703947,157.185311761088,-9.16862069159675,164.704821388932,82.8787264980749,-56.9420770577034,-85.5867609229499,70.3848497219511,35.3919833327615,-140.117785247639,12.479406718302,-144.035586036912,96.8863152353207,-122.907461960564,70.2569541538614,-49.5856863848166,141.950479491018,104.815541732961,95.8062239355886,103.316085979846,-150.178320760154,108.234106558146,97.0308460511278,135.312296529276,56.4826267110212,-17.8794525376769,114.819362233958,-79.7795990006855,16.6361671303619,146.81458884582,-164.809855013915,140.7914941876,-119.882475825171,-12.6841586441832,108.846094320002,-74.005347263751,-84.6150142376421,-20.9737335703214,-137.42069398025,-135.529370987175,33.7367232128947,64.37523996699,-25.6133339166654,108.128527501886,-142.985891133889,8.76067537127386,-69.2661539597255,133.061776805714,68.7818131038759,126.533548329651,-67.9277371411783,-103.137745205853,37.9540574795137,136.063438167389,-14.3283695809475,-16.6881473122348,60.0972699521218,-71.9426919206968,19.402046881648,-82.9394800577047,159.937133371274,-21.2357333636104,137.648844413635,3.73087968389425,-124.058578435549,10.1538911514175,58.4637450638565,142.218133386926,30.8665824729636,-146.665780969609,94.684477844592,165.884858369793,173.080169951028,87.4871837390974,172.331307962054,2.11857093828035,-2.59391456252579,131.591377950471,-118.420825404039,-2.82027693542124,-12.6450969629061,4.85626937806786,-177.441378908726,99.566052477059,170.955659178786,61.2545953926028,124.506503840556,-109.636410550277,-50.0520794409971,-116.77717545804,91.589643709924,-13.1643033395102,-39.5853254329142,59.108302488973,142.283877469968,-45.2175113505263,118.586713230729,75.708975013748,65.2010895104956,157.504540393481,2.79096890882177,-61.1680215073713,23.8305598433247,142.433901055015,148.279791158281,87.9289259950588,-163.481930697415,-103.949456501158,-88.2237605091505,178.660808048239,-96.3028328432316,160.685397475579,118.006519868096,-81.944137505312,46.344300377207,117.631092999205,89.1215117844045,-93.6244479350731,-169.655113447904,-126.398013318839,-32.9816164207087,-141.267108192936,18.7676009899587,-48.7323543561415,-16.7011003102984,1.44791843038485,26.8853402128951,146.725360204699,78.3990501938397,81.218977610454,-105.939646252407,-66.5727844767168,-50.496310856485,-49.4338334003641,24.480840006629,104.852628381358,70.6321637078115,-36.4583553735191,5.01867344240279,-176.552049760966,-130.289745465609,-91.1069539970444,-136.49629894618,-129.585654087143,-153.470774141,-98.5419327812865,-113.781107999377,88.5527699225824,-91.250934549929,-137.329831347879,-33.3797812098233,-39.6478267370442,-90.8637523917697,-45.7505102263658,-19.7466748381674,-159.531221246521,173.756253572412,-151.666089312964,-78.4527646605046,134.533682372335,93.980458822069,-136.760558899938,117.886473473088,164.947063124713,-4.9028279008925,-14.8138391887563,138.590337399134,-123.360063987932,139.935883706573,-95.2439050622436,54.7287348769374,-65.0511169613858,58.1727410104532,23.7707851687269,74.5350357794109,35.0380733613225,78.6619893030924,-89.6622981802569,-27.603405882465,-36.8860884114113,-123.445538944612,89.9116048630357,12.5468265373878,80.5668701067256,37.6659304721251,16.5158575048792,24.8364510242509,127.338715010198,140.066098298858,177.215717003401,-156.247126796807,4.53753598289889,-152.651958635328,-141.440722587942,102.671108979277,-94.6570018696506,61.1026130095316,-82.8928178426252,-166.789047533023,-89.9011676433731,141.432867347328,64.4921957473308,-169.764628738683,77.9494695050064,83.3756949999357,-47.1446986667456,-169.640702576209,167.124879579209,173.715175813392,-163.152982207215,146.63002536439,19.9166972170086,92.0630805240879,-81.3365090086215,-5.02106269191104,-114.101134233829,-73.3201023342552,16.0655778763493,-99.0477484967573,-35.382299908081,159.041403605363,109.084904865888,-116.637506072885,-69.7252487706659,132.695076813387,-111.81947916753,-92.6873181079826,-169.834237074355,176.693874292486,98.0555090372742,-109.236080538715,104.95483254066,119.817897131743,89.5568300385539,149.647484091245,0.462720773433647,-41.0183273911367,89.373113133155,172.34612838228,-139.829292556585,151.810565886656,-21.3473768946845,57.3521615012963,110.092475937984,39.015225468965,174.733017640668,141.712920516595,-27.4573980357336,-47.2669653142246,-175.437922196668,106.035680647245,-45.5367171815626,-37.4804337230808,59.5736190620153,30.8414085311861,-42.952186951304,-167.286240222772,136.705587375761,81.7342146889815,97.590889203087,112.116909910905,146.679167890109,67.9593359437842,-98.3198887177769,-92.1161578174867,136.386346641393,-136.721796169611,74.3653987480491,-27.4479121934999,-162.472009499209,153.458447281309,123.908135107907,85.0924674651792,47.0400562621637,21.9066036568925,159.997765254983,-161.807535322734,-66.9266039732647,-130.993101589971,61.6250221446394,-162.100421935106,-21.0372626034348,115.570583252959,-95.9863145331748,-122.046129752899,-5.10705333630584,-35.8227599843139,168.435154530909,56.592247151711,-111.921438243494,142.789291484407,162.542125177621,91.0704864221746,102.257439818373,-164.997695336465,-120.599730010427,-128.362500225184,29.8848702068787,2.112355636713,67.7690702299871,0.0606712489884182,56.6140484837869,-132.63038716439,2.0625648694171,-159.835124258934,-120.790337132272,115.790060527052,37.6482730901204,137.197538784987,3.84373048902371,75.1762353834098,-94.6662101946197,21.2869341727136,23.6664225239712,29.6093519607213,67.9648178562566,95.8766098133575,33.8337170247472,29.6573645694287,-118.996919102606,31.6870322928522,89.8146464992497,-5.72653437657173,-6.54606436093943,-13.4887201470602,-47.3840206540752,-0.173369822854587,26.0305066299951,-79.3178989876173,-22.1980924546354,-7.04274690623597,79.5069137206396,99.7716957043179,-94.8008331670029,-90.0325592887634,125.172522451905,-151.311586021422,-109.321865413633,36.2261149669851,-94.5302629556643,-116.902550642093,-17.9569275927837,169.901675201907,-156.79504712993,-143.533790798424,146.218430100595,56.1713053621309,-69.304010872732,-55.9496645622541,-129.638824644106,124.573906657188,173.17237177737,28.7499823516912,-125.273368525335,-6.7926951332773,142.865164565681,-78.611254265863,-122.493292013718,85.6519422422524,140.99116312049,115.607784146719,9.52379243542941,113.325881088562,112.353721379962,39.7534055999672,40.6809927043098,-96.8728158720264,-118.261938537844,-174.780871490047,164.981878935499,-44.2177486733532,59.3006275729883,-77.2514548415117,-109.174541022219,-50.1067439699759,-60.1130496396512,135.210366028024,174.475757154261,-110.551967239686,124.621289604486,-7.18955018574378,-50.8366017161211,39.139120489229,-1.15669506262663,21.5411993728331,63.3705924033497,56.9760478988514,-166.69283364265,78.4170897980696,-62.9320095616511,22.7628841756239,124.974845626656,62.6724658867679,-26.3443923042861,-136.786097374021,164.570603743145,153.506050816493,-113.048035557604,146.196298747176,73.9685205596398,-99.1724115987089,-169.113182374116,-145.586129238457,-82.667832345416,-145.729239726185,-58.33849089061,-97.5805396267195,-137.233263825218,75.81773794796,-60.6037729995424,-127.644905144613,-103.89920318512,110.908493629632,76.6066705905094,91.4111986448248,-61.1845990891935,178.40844850272,139.309659748249,-94.8799131664495,-166.772764768711,46.7516812632489,-110.709031535887,17.4189963389331,125.954681097048,87.4346369839692,-34.5681691240647,-117.580386636578,157.792915696071,43.6956905041488,111.400564141241,-175.863082063682,160.351297617332,160.740268077762,-84.8807049762665,70.6522538253457,-92.1713247250161,51.0482775306061,80.293713499815,-175.499691683129,-15.9375997506654,-48.8596674957218,-90.5731402744086,170.592595888478,-113.171620447655,-173.620561880732,-3.93441105592733,32.4807069637935
141.69753054634,174.018960389043,-26.0387293563993,-61.8767008014899,83.0258103155076,14.6146121169645,-167.133744485774,-36.9663782015723,34.1329086600903,40.1044034155887,44.2840499109173,-41.4516077357292,46.2846884980007,141.953501702088,-71.1310699338946,-84.6551829960544,18.8367765244565,-22.3179123346344,-157.942466787779,105.338817388166,141.175258903968,-57.1571650539598,-134.951286088643,-172.904375283081,-27.8750934164159,-155.516226063926,74.1642554351142,145.936584773026,-133.499201285933,107.801557911086,-156.560892631692,-17.5180131607062,-155.118974827599,-7.10963195431556,70.3792939765797,8.55355718573893,79.0128864677837,-120.423967096413,-96.5307724019982,144.937243106229,124.256795913621,102.188798042274,-127.432730033455,43.5503344050196,37.2893982616066,110.508450662044,22.7521222297201,79.8807824784891,92.1636680311965,76.5761132863582,-102.967755135465,-126.683485298938,30.8230352062308,174.345018228978,-118.31480770339,-99.8358469511147,23.3818125628976,-45.5032907518583,-76.9856998919088,74.2481388955943,-115.486393481071,-170.890828809045,125.398752571113,-39.6733882393243,101.126209941374,57.3420082659415,93.9912521953588,97.5401776714898,-24.9046316657746,95.3985794705255,87.664426685172,-81.467581772685,95.3067728115029,-77.9358212827214,-8.94931929086322,-70.9621273521354,34.8446159061871,-100.41996372963,-155.795795270884,13.4744892060541,13.0417184694487,3.03386270832893,-40.1353304592211,16.3086048926582,-52.7383846975164,-51.092698488006,-27.1212423679008,153.230084235846,-52.6030301235458,122.082030483281,-177.071712477517,-15.6116241927626,27.6770070716941,-86.6134204328227,-12.1473014157385,95.5216290318652,-173.277447221855,143.212860234131,33.2290493330301,-108.222053582769,-17.852350273924,-166.906293959748,68.1219060434515,-38.299576155185,142.392264688717,99.3786008941492,-69.8548939262208,123.81369676476,22.514791367311,-120.551585038583,-20.7248982307486,-40.4520802070152,87.8632403118622,-75.6164218598176,179.400305159006,139.600950215725,159.519809592796,-49.7571849524072,71.336434628831,162.587352014662,-97.1230120211032,94.8430165443333,-145.354867674926,9.07926616572307,-135.839510990929,141.388599787959,-70.3568614282953,-176.337749042244,-19.1603310939732,-84.9250050717131,88.0061114342697,-95.0024268025244,-146.668314929025,133.016950868237,-83.5573051374952,58.3078521428177,-103.38409639772,116.475974908702,-169.482914517414,-142.343428514174,-17.8410635238437,-67.2335198509667,72.6616761391339,48.0515624910617,61.2137793000399,20.3443725417078,46.2915341963321,79.6266348564915,-94.3184200337002,62.1550695023681,99.3640404470172,18.9667909922219,-14.3275732136044,-64.1914673574996,134.999957198377,174.992045332817,124.845542074099,140.662807574117,-69.2579162816093,129.724607903989,71.4757084762881,-111.657518724811,-56.1316466792828,28.1489812428612,58.6261038992417,39.3562196081972,163.563119841836,-135.556457012476,-72.9627285609346,-85.9951969088183,-77.497260269968,93.2366692789115,75.123628170928,-61.1441353935698,165.126319700414,-59.0334236602644,-82.9411577239592,-135.753369502065,-88.4595737662961,79.0457525335594,149.126499045021,24.0511218481675,9.888661255426,72.1654579979192,6.51142528772933,176.17488928625,-146.8738218552,-141.402309922104,-105.425522431793,-165.321482488956,89.3778821732463,-89.2337749472504,-15.1113572333705,-57.1122661439031,79.2261389147698,-80.4559049954498,-158.440471900186,116.702908819162,23.8710250128652,-3.85401790050605,80.0978421537052,-113.5709405168,-168.69317718747,-73.3640328332033,-29.9220650924463,-103.783098227115,40.6950856530516,15.4207041753324,-170.962810012995,153.569588851268,-60.2942586983593,58.6993475222022,-28.2354457093719,-112.822098329515,-59.731909465549,-25.9762660219444,-108.209417322628,160.171738265984,-103.083816894062,-54.3541702769199,70.5665495169366,-45.6057799599239,104.472134807688,-161.255439665066,96.2595562549302,63.736340949239,62.6890949257479,155.398397664925,-158.624091369542,-116.03885923946,-59.8548447942439,156.593306393405,24.2034773404691,-126.442833873757,47.9926186924992,-164.64295335193,11.9940188251539,13.3251553973048,-72.7962665943072,-114.908397097114,-97.0093364710483,158.983097722197,152.337926010022,146.988392926255,20.5209603256513,-165.560176225333,-112.289476456636,-9.13072580362577,-99.15759411269,78.0741593713909,-161.170129738373,-69.0544929098345,-80.2742439152797,-89.4220012886707,148.16562503044,94.0276478394514,-48.4251693162138,-8.84284786028148,155.574100594541,-142.361702016329,59.2253971634164,-177.463413856801,151.03062420006,-101.129645599634,-9.34544557220497,80.3683686817072,-173.145120323134,-21.3241779198014,-69.5752118330779,37.8068190892429,-124.313722286043,124.300327459115,3.81072716435364,-21.0966219551848,22.4295521368914,-122.910274299784,171.684860617153,41.4049966989568,159.35304763164,100.40094063075,-99.6311042453053,-105.373156897291,-52.6944781611122,80.6047117052821,118.628204818476,-114.262747809167,-82.90668713447,3.46104846439568,178.677677105002,13.1167034746874,22.9835219627985,41.6886216688261,151.528099437627,-55.0365776781874,-31.5451067658744,-155.602080728165,-31.8897544315835,-130.999671079019,-10.1205711671648,-23.5148852948836,47.0265632511461,135.959414646495,-95.4434295459105,178.993752754622,76.9946372998978,51.3287487609935,38.1511519455452,67.8901720786581,-127.461664133777,-6.64305139141756,28.7554252698204,89.6463670232165,-71.3579760679407,166.74603350681,58.1865389322267,176.056324709951,40.7453320739935,-42.3300000382721,5.46244719484102,-9.46288913096723,142.785535571127,114.495312024829,-132.645249525559,-141.947340885062,38.4036357723962,-56.192031124293,-122.328217202461,-46.6803941196961,147.151190867377,-31.8275552723549,67.6760772934452,-60.4368041497363,178.935646858424,-131.11258847389,23.3598681814215,-0.507798226299932,-9.69244369891151,23.2651611820106,-90.1002288116669,34.166367813116,163.781520409581,-147.365325536672,-147.9331874009,-160.533057880436,-100.823387125895,-125.449655559847,76.3212132762196,80.3813999239392,152.910634849262,37.3725892676158,-53.4194206498486,178.963289565569,102.670567879302,-107.163998274475,-91.4062423740462,4.60468857120774,-12.3860546164718,51.1653159431009,174.139198078279,48.0828560817671,175.799888501207,-156.139714887665,-66.5718858259389,143.071795414356,49.5909028872352,-87.0524083356774,97.5929565905957,128.362038243458,98.9224789107121,114.101880050861,-93.5612207604397,145.958681103947,-69.7147088987601,50.0716379064512,162.007781837757,58.3929550191545,174.275024462492,-99.1112523241768,139.128548141679,133.664676875736,-14.1229757126587,-50.4353678836936,-64.5819102133992,51.1013689342746,85.525318288683,116.194734882604,115.971379057182,-88.0436595423245,-7.15284932520109,-113.206261230808,147.913187239449,-179.645233750106,-106.702122106612,87.7687445517047,-30.9287942969347,136.238635268609,134.545369668448,-166.477427355943,-146.752901039193,-165.948815777232,84.4778038653702,59.5544443749694,92.7746047967346,19.2670868974324,19.7364913204642,122.517627708942,-79.3393881893975,170.674526085133,165.650893577379,89.9259963891792,-91.2471271924159,-12.5139546793877,22.5751003653414,15.5096180292043,-169.579101159176,17.144503401563,55.8014324415783,-140.876619894836,-167.035048546676,-174.70188341166,-70.3064153537869,29.2634148634058,114.56036224715,0.691503978405178,165.897498777544,-112.6225161632,159.822436970497,-92.3209749095716,63.6302182047993,164.007721733176,-132.783573000172,-133.231521214483,104.970105547319,-134.295058421685,121.863754003882,41.5645961350278,109.038236834257,122.191642175318,171.802348068866,24.9978757332188,-119.741495842684,-156.987941076815,69.960551437616,-88.8006211914946,99.9146605758424,-104.223856968924,68.9890247481859,179.435593566881,-161.416292472864,-70.843056512176,-173.827197845676,-8.56330043799025,-77.6819606821344,153.962276361702,149.326629800577,114.884478233715,169.938856261062,83.4653990466822,143.565781772549,-17.9767639456902,-178.027446895258,-3.40758684943634,-121.950601211895,-98.7360043445537,-20.697401259055,69.4291923697007,13.8572430283156,-40.5863623477489,-11.259334641698,93.3793409331035,-18.1591791401159,-8.48620023304687,87.5829382457844,65.8116669972913,5.02665177027018,119.198752933123,-145.524527667452,-76.5666963175729,-157.770238062702,69.0880970639685,-102.338100045354,11.5641956773034,24.6990187162331,-175.466974830522,57.7002511606317,36.7060774543871,-175.231585586054,142.046695558666,156.399377917522,18.6530121187639,-5.88386980939023,-23.6847351868725,-41.6534421940372,-146.159171267775,18.228935491704,-29.5755358210979,-122.673212151033,28.1593873219747,107.3064338546,-150.828386190226,-15.614084465123,-161.012188188626,-90.423290070074,155.237264184893,-14.5798683163267,12.520385112005,-123.689608501526,-33.6525562408416,24.709772822931,-128.092074604218,-120.387409267886,102.179282218013,-60.6412910051878,-3.72086219503375,152.600972168324,-92.2717567568964,-122.056468044955,-159.769022537581,176.347920630578,164.415379603553,-60.193379421381,56.1656829062729,-59.2350095849276,-93.7560296830903,-168.343036682349,-95.9248328590711,67.8156810984636,55.317949876959,95.8804850805807,-34.7705125888898,-71.1279186633382,16.7054868257732,1.98114575955959,-150.396643096206,-102.82270184128,42.9578150453667,154.351380652913,-20.4261226218951,-178.528592807974,-35.3402517200478,168.377586438745,-10.1291352264287,86.619209207848,-126.725547131738,-3.61539807628553,63.5145435874716,-159.340640029828,120.670167530434,-86.0803623147492,51.8571274195019,48.9766597279563,164.648319909659,92.7123304854554,-170.861595667766,178.574098306046,-108.240795037452,-138.378045242351,-170.158112531136,155.715599189469,76.0018251995812,121.514848529271,-129.215459583734,-56.5453521041393,111.416424159568,49.0503590708764,-150.172239433419,-102.747818779876,-93.245910165966,10.9675917441883,135.929772147174,82.9434237127968,114.276110885978,141.593774241835,83.7536677873965,114.005000329276,107.05744937996,-106.962503945031,14.3023032122221,-175.057122279651,-48.3178454002089,-149.159008964501,-170.302488283279,-50.6517552401773,-48.0451337985674,132.635100529353,157.405069980769,-166.48393282727,-179.700378655182,-108.689961622419,-34.3016123404072,106.390284531751,80.3690705209652,-117.227794513705,-105.229919784783,-94.022015803425,74.9031103547411,89.4012723754253,-26.7314532521747,139.991124480833,86.2597389857079,-57.7709255308833,-44.455892873445,143.505684566948,50.3639126074529,-120.819993775838,-59.0253845194929,0.109390833687862,-51.1554201166915,-80.4603489379629,149.394798354127,-110.825822126651,-0.342152393027301,34.2861005026772,-40.2531840459549,34.1229649748137,122.498651016338,117.746363188511,85.4746821777845,-124.070385201262,-127.111928997244,-34.0717658848263,-83.4244380502228,106.026168111791,-152.368804422097,101.071707428092,-44.0525612143556,170.269098043589,-149.193820544902,-77.9140586555061,-119.54492016846,163.997938498495,-173.77677231586,-33.5931238246857,-114.295239249468,-101.149144231297,122.244392765548,-9.26864128724739,58.7100067091605,11.1204291732699,-38.4727150098418,155.112327672371,128.374583092738,3.89070000323713,-114.401961948742,90.1781702282898,-20.7097036723242,102.0444729936,21.0203125088351,-147.186241792969,-107.041625242785,-99.5607445601371,-121.32030317748,-8.59732812882229,-50.6460484083497,132.85407977394,-157.140621386519,48.1467608878624,-62.8316928800341,145.459261124847,43.2268027746986,-58.5970322348487,-55.4003552883449,-41.8028797891115,-41.4059961048066,-64.9797765826583,-72.1291522683116,-78.3416315123741,166.653758049171,-72.5010389333932,-117.948625804276,171.796983962398,-154.012040723946,50.2018094078515,36.2956947065756,122.000896121517,99.1806740557025,143.04148369456,174.922881656515,84.6379771454957,-152.514385271359,28.7527540443699,-130.69704540841,6.77944533099197,31.5456374069124,107.331338865218,80.1392489594927,-91.6419799754637,139.984572379961,-71.7931534618202,176.383864365496,43.8794006633709,177.968316928201,-62.3276251408919,-154.090331055238,169.634450012409,-81.2834359810359,-125.273883505621,-86.2604525001235,-3.17703290606187,-69.2366979562493,90.5485595145456,127.872582066527,-8.03906038341514,107.744362701025,-125.008974741302,161.961360140136,121.499222590832,-142.699969019686,-23.3105743841468,165.113460537801,58.2746323653668,122.302524741236,99.8819280284759,127.220424172092,48.8383117230879,150.712460034275,26.9814740244137,-90.6051931247151,157.652742709043,77.8672935505183,8.51575068226881,49.6959526497089,-134.500781155662,-56.009316855334,-116.255580336673,25.5594530994912,52.5441212770833,-147.356110733612,-32.2340780917078,41.9190157338698,-105.826879318612,-147.394367725806,-140.276337675315,130.48390792917,44.7854408131583,96.7739608574405,-75.7787233718645,-94.4388745844376,154.85090132241,4.65251843698426,-155.842640332396,50.489750515532,116.272047403883,175.539319166912,102.810754258713,168.829179026352,121.759049515321,111.782836675539,-37.0738568883395,-109.616163488144,-141.945905394832,-17.3825317940342,-169.656471494821,104.636117461316,-126.754369495308,51.4205128137615,157.134435994593,-115.369035329567,9.87563089164226,97.5894331603434,9.09481104500942,84.8005375093697,-88.0134911304557,128.773424866141,75.5165522387288,-51.2596165432197,48.0553323736058,-73.9202152714944,-35.2544689783808,-91.183255457296,-28.613475202915,-56.6071571141788,-128.738883083121,164.115554520702,-47.6842637803036,37.4201895233809,-25.8297028655448,148.126530846546,95.665335145674,-131.297673778562,-166.223263642504,28.5354191536568,17.3635092012288,120.641682459028,-167.909570538391
